1004 200
计算机 -0.25314257 -0.27701434 -0.40884253 -0.22517462 -0.31716913 -0.011721253 0.015633909 -0.34565973 -0.20364657 -0.164001 -0.1878394 -0.33947402 0.3407151 0.37321022 -0.028489627 -0.19731739 0.10949582 0.13113517 0.37627286 0.46363726 -0.012510876 -0.19651134 -0.25898942 0.6315551 0.28079885 0.1762623 -0.29837286 -0.16215149 -0.1996005 0.023719374 -0.0678244 0.17297882 0.09265101 0.029626938 0.2605417 -0.034663316 0.15847857 -0.020161957 -0.2724398 -0.27676252 0.045100015 -0.0019923013 0.05178772 0.55249983 -0.029135937 -0.18324615 0.0786356 -0.05226196 0.024588404 0.12717694 -0.0049292897 -0.35020998 0.0061550136 -0.35661313 -0.40494752 0.014189227 0.32994792 0.04698316 -0.0018131975 -0.08348389 0.35170344 -0.01943957 0.36812484 -0.027129414 0.2574497 0.26439935 0.13854127 -0.054361723 0.10224695 -0.39575842 0.0142501695 0.012798901 0.34076402 0.10691267 -0.26526573 -0.028054617 -0.3193431 -0.16149302 -0.39670452 0.2305553 -0.3529737 -0.31224945 -0.06416023 -0.09376757 -0.10857149 -0.62936735 -0.2716181 -0.06163274 -0.15983972 -0.053976618 -0.110827476 -0.04154038 0.11230087 -0.13395824 -0.1847733 -0.08551281 -0.1754663 -0.14500594 0.16770981 0.23986891 -0.02174337 -0.35437614 -0.02642599 0.08095009 -0.025900794 -0.050729312 0.35454664 0.21829917 -0.112748235 0.0584612 -0.11764006 -0.0066526635 -0.60810363 0.024862949 -0.08814611 -0.38092268 0.44119832 0.26920515 -0.03311868 0.38974506 0.1347937 -0.2289371 0.6171924 -0.23693779 -0.07198077 0.17323636 -0.10589031 -0.09644977 0.38972524 -0.0031122288 -0.0511093 0.25019062 0.03629294 0.36735582 0.15196605 0.17559443 0.25902537 -0.093298174 0.1474685 0.1043122 0.07059933 0.095632724 0.22314218 0.040021352 0.20416035 0.18671316 0.32125065 -0.20426627 0.09415022 -0.4498755 -0.39767566 0.10038195 -0.09676206 0.18567942 0.040428977 -0.33936208 -0.05636004 -0.11017728 -0.031861857 -0.026526155 -0.13755178 -0.12991193 0.27799544 -0.01151805 -0.14597148 0.06683991 -0.07975941 -0.112561636 0.19783364 -0.31215972 0.15511654 0.17290172 -0.057001315 0.17417856 0.104689114 0.53602606 0.22636013 0.025554867 0.20537722 0.25752476 -0.060481105 0.21570598 0.2100666 -0.018675517 0.09307566 -0.15632011 -0.07335141 0.60659665 0.2575213 0.10573393 0.04720414 -0.26751086 -0.12598227 0.27163866 -0.14582951 0.18782522 0.07304286 -0.21942015 0.14828195 0.2645391
信息 -0.28150785 -0.30807614 -0.45977858 -0.25434378 -0.35211405 -0.009439619 0.015017375 -0.38495117 -0.22666301 -0.18448815 -0.21374567 -0.38176587 0.38572967 0.42128238 -0.033975486 -0.2250456 0.12439725 0.1489146 0.41920257 0.51952505 -0.010183421 -0.22629225 -0.28902832 0.70797646 0.3132656 0.19958471 -0.33428133 -0.18111481 -0.22196361 0.024875388 -0.07267665 0.19537978 0.10821498 0.028407281 0.29376176 -0.037045196 0.17823544 -0.024777217 -0.30435744 -0.31243357 0.051485486 -0.0029279906 0.060660414 0.62026495 -0.035323393 -0.20344149 0.08873111 -0.061355002 0.02420485 0.14865904 -0.0078052944 -0.39347726 0.006509951 -0.39723757 -0.45373645 0.012780243 0.36648884 0.053309258 0.00027745895 -0.088433705 0.39496243 -0.025139293 0.4137293 -0.02796561 0.2911023 0.29347014 0.1575049 -0.057484776 0.11519805 -0.44615743 0.0108268 0.015738172 0.3855605 0.12382008 -0.2957878 -0.032660317 -0.36096635 -0.1769312 -0.44795159 0.26021397 -0.39436388 -0.3488616 -0.07398166 -0.10455186 -0.119931385 -0.70521075 -0.3086462 -0.07205699 -0.17565614 -0.06455332 -0.1233929 -0.047472022 0.12705143 -0.14897859 -0.20707911 -0.097534314 -0.2001748 -0.16535175 0.18872294 0.26789415 -0.024344983 -0.39437956 -0.028524255 0.09389156 -0.031532455 -0.054803845 0.4001851 0.24139668 -0.12467557 0.06570551 -0.13434786 -0.012991152 -0.6803084 0.030460712 -0.10194586 -0.4260631 0.4938346 0.30075094 -0.035867162 0.43617845 0.1505154 -0.25334087 0.69372153 -0.26412088 -0.079876974 0.1957761 -0.11803682 -0.10493931 0.43755588 -0.0008589988 -0.059584558 0.28254172 0.042504527 0.41382653 0.17153077 0.19967775 0.29140395 -0.10571685 0.16430685 0.12080909 0.08128016 0.10439033 0.25524804 0.04282495 0.23263371 0.21276785 0.36332822 -0.22985406 0.109752975 -0.50428885 -0.45068276 0.11271106 -0.1071145 0.20938297 0.04386129 -0.38305247 -0.0684562 -0.12198672 -0.032275405 -0.030140698 -0.15255818 -0.1483095 0.31506902 -0.009487761 -0.16219148 0.07608347 -0.08716295 -0.12262274 0.22174934 -0.34689292 0.16945094 0.195893 -0.06341197 0.19819905 0.11475904 0.60248685 0.25937158 0.02905668 0.22956736 0.2900978 -0.06790246 0.24266732 0.23483193 -0.016731353 0.102903515 -0.17224737 -0.078531936 0.67947495 0.29245612 0.12011571 0.04775686 -0.2995801 -0.13815479 0.3096752 -0.16094248 0.2155797 0.08208059 -0.24310948 0.16613947 0.29850152
数据 -0.26933226 -0.294982 -0.4333249 -0.23768014 -0.33636588 -0.012996037 0.013805562 -0.36513802 -0.21231245 -0.17539427 -0.19848408 -0.360895 0.36285117 0.39784682 -0.030605605 -0.211728 0.116843745 0.13893178 0.39951184 0.4943831 -0.009289262 -0.21059054 -0.27257335 0.6659802 0.29528254 0.18771046 -0.31686276 -0.1717049 -0.20954934 0.023107711 -0.06852355 0.18485796 0.10178937 0.032219727 0.27901042 -0.0348822 0.17114718 -0.025862528 -0.2865083 -0.29668954 0.049827565 -0.007604727 0.055172723 0.5843401 -0.03371269 -0.19516781 0.085133426 -0.054736163 0.022216234 0.13960871 -0.009171958 -0.37085804 0.005248287 -0.37335214 -0.42957243 0.0148202535 0.3457745 0.050673515 0.00039265797 -0.08665184 0.36890492 -0.024632663 0.39266962 -0.030656405 0.2737856 0.27891764 0.14943776 -0.056276575 0.11217748 -0.42561898 0.0112599125 0.012456481 0.3605524 0.11302778 -0.28011367 -0.028117416 -0.33882952 -0.1690342 -0.42668504 0.24310438 -0.3729066 -0.33188424 -0.07051354 -0.10342542 -0.11331569 -0.6681248 -0.28984025 -0.06949614 -0.17024776 -0.057482194 -0.120880336 -0.04560056 0.119927 -0.13829264 -0.19574817 -0.09058436 -0.1887953 -0.15085436 0.1759815 0.25193536 -0.020958062 -0.37597325 -0.026320433 0.088794544 -0.02605073 -0.05373893 0.38057184 0.23229633 -0.11634477 0.05870707 -0.1283582 -0.012426172 -0.64186954 0.026450682 -0.095493846 -0.40410018 0.46480623 0.28585452 -0.03261705 0.412376 0.14672561 -0.2379137 0.6556695 -0.25055832 -0.07480221 0.18559107 -0.10939733 -0.09579961 0.41411364 -0.0043894006 -0.054972444 0.26393062 0.04196235 0.39193723 0.15902597 0.18902905 0.27183115 -0.09825096 0.1518705 0.11500737 0.07836974 0.102643475 0.24065387 0.041899752 0.2210547 0.19940944 0.34104496 -0.21800622 0.101247676 -0.4785063 -0.4223416 0.10463566 -0.10040102 0.19748598 0.039106004 -0.3588062 -0.05921629 -0.11902266 -0.030405033 -0.027325392 -0.14666967 -0.14157115 0.2967106 -0.010709672 -0.15384226 0.070252515 -0.08241635 -0.11519568 0.21085 -0.3300858 0.16060022 0.18580034 -0.059967805 0.18534662 0.10937282 0.5700922 0.242762 0.032067474 0.21545489 0.27352107 -0.067179054 0.23358883 0.2233103 -0.015413182 0.099427 -0.16247874 -0.075132735 0.6425253 0.27246493 0.11442316 0.045889635 -0.2854779 -0.13454443 0.28963497 -0.15061025 0.2039487 0.07527273 -0.2309404 0.15758148 0.28304774
技术 -0.24712051 -0.27207905 -0.40589896 -0.2238457 -0.31193686 -0.007519585 0.014487228 -0.34419966 -0.20216554 -0.16461574 -0.18437503 -0.33612356 0.33954918 0.3727075 -0.028787058 -0.19625518 0.109288245 0.12724859 0.37453395 0.46190774 -0.010553246 -0.19967788 -0.2545071 0.62507963 0.27621314 0.17841701 -0.292307 -0.16468784 -0.20194662 0.024433902 -0.06187403 0.17280453 0.09431374 0.02587545 0.25653344 -0.03239697 0.1603497 -0.021790808 -0.26751667 -0.27930236 0.04818346 -0.0025651061 0.05139613 0.55036277 -0.026824707 -0.18386848 0.07927624 -0.050284654 0.024202941 0.13255873 -0.009383926 -0.35184902 0.007245565 -0.35147297 -0.400171 0.011721461 0.32834378 0.042900663 0.0010335438 -0.080017686 0.34944406 -0.021294845 0.36882833 -0.024668528 0.26059726 0.25746712 0.13692501 -0.051681165 0.09824028 -0.39650664 0.012088549 0.01337605 0.33875778 0.1087798 -0.2622843 -0.028854616 -0.32058778 -0.15435335 -0.3969154 0.22825834 -0.35236514 -0.31174248 -0.061745394 -0.096670195 -0.105186045 -0.62125653 -0.26997522 -0.06690129 -0.15633415 -0.05770908 -0.110449746 -0.0412217 0.113675565 -0.12988682 -0.18249358 -0.08767665 -0.17598738 -0.14323047 0.16416766 0.23455727 -0.021353053 -0.35334927 -0.024986332 0.08280833 -0.023119396 -0.04930047 0.35300368 0.21462852 -0.11157429 0.052636273 -0.12140066 -0.009844771 -0.603993 0.028496996 -0.08670781 -0.3744291 0.43591124 0.26901314 -0.036845025 0.38678247 0.1345978 -0.22359173 0.61364245 -0.23512943 -0.07407301 0.17255953 -0.10185103 -0.09492218 0.38350746 -0.001237351 -0.051634155 0.2489317 0.040015902 0.3698762 0.14728826 0.17469423 0.2545018 -0.09645046 0.14554107 0.10261365 0.074357636 0.09303528 0.22757739 0.037586052 0.20648965 0.18519753 0.3186625 -0.19904521 0.09642626 -0.44650337 -0.40053025 0.098764166 -0.09145791 0.1836154 0.03987474 -0.33951005 -0.056553047 -0.11089977 -0.028745024 -0.024221065 -0.13246104 -0.12781388 0.2792368 -0.010315661 -0.1427533 0.06467024 -0.07858732 -0.11204649 0.19503063 -0.305467 0.1552472 0.17380077 -0.05601942 0.17185698 0.10604878 0.53009343 0.22493707 0.026297 0.20084114 0.2527084 -0.06301824 0.21837632 0.21251638 -0.012748726 0.08901453 -0.15317638 -0.06883276 0.60052633 0.25977278 0.10375348 0.046492398 -0.2675985 -0.1235955 0.27527404 -0.14561051 0.19114351 0.0678024 -0.2168915 0.14497624 0.26896128
程序 -0.23121473 -0.2498672 -0.3703369 -0.20246217 -0.28730768 -0.008273324 0.015516312 -0.31368634 -0.18168667 -0.15029854 -0.17453364 -0.3099459 0.31254336 0.34065568 -0.024971982 -0.17845868 0.104347676 0.121890806 0.34236848 0.41919845 -0.0120297335 -0.18196362 -0.23398134 0.5720042 0.2574953 0.15895276 -0.26905638 -0.14837761 -0.18385093 0.021660687 -0.062959276 0.15826724 0.08693853 0.02829897 0.233965 -0.032240566 0.14716044 -0.022647377 -0.24717315 -0.25487468 0.042101543 -0.0046358285 0.044630002 0.50445926 -0.026596524 -0.16571873 0.07417242 -0.051597636 0.022748357 0.118567646 -0.006704965 -0.31877837 0.00309993 -0.32205874 -0.3694145 0.010240411 0.29703733 0.038924772 -0.0045938566 -0.07327811 0.31974193 -0.019213593 0.33501393 -0.023929011 0.23360209 0.23999181 0.12550862 -0.05117615 0.09295671 -0.35954672 0.013140036 0.0077218814 0.31050387 0.0992809 -0.2385487 -0.02492456 -0.29371822 -0.14680518 -0.35991654 0.20938845 -0.315907 -0.2809302 -0.062796354 -0.08835924 -0.09791544 -0.5731133 -0.25185108 -0.055453517 -0.14212427 -0.04840877 -0.101720005 -0.042178225 0.10042247 -0.11965218 -0.16898644 -0.07819158 -0.16348395 -0.12958339 0.15079413 0.21672843 -0.017978651 -0.3214256 -0.020393766 0.07158923 -0.027718171 -0.046021327 0.32605597 0.19819689 -0.1039561 0.052060217 -0.108014405 -0.008069587 -0.5518503 0.02455691 -0.078940615 -0.34716585 0.4015191 0.24416792 -0.028707335 0.35430533 0.12447553 -0.20399716 0.56210405 -0.2124054 -0.06512715 0.15620464 -0.09323517 -0.08897747 0.35368863 -0.0013198312 -0.049096294 0.22771563 0.033678606 0.334313 0.1392388 0.1574518 0.23722461 -0.08608876 0.13639024 0.09567906 0.06766681 0.08494825 0.20263037 0.03854583 0.19071306 0.16761827 0.2943683 -0.185783 0.08421189 -0.41089514 -0.3623366 0.0933382 -0.08511511 0.17124228 0.031920485 -0.3100726 -0.05268513 -0.10281062 -0.02581718 -0.025471153 -0.12215071 -0.11828678 0.251051 -0.0068752496 -0.13710302 0.063584335 -0.074299514 -0.1028023 0.1788632 -0.28482747 0.13936998 0.15591078 -0.04773572 0.15708591 0.09743727 0.48648748 0.20957452 0.028829237 0.18816303 0.23147361 -0.057894412 0.19433309 0.19396107 -0.017102553 0.08584244 -0.14149451 -0.06825545 0.5476442 0.23274834 0.09749654 0.03933499 -0.24534407 -0.11639482 0.24698462 -0.12818195 0.16965389 0.067794345 -0.19519918 0.13287467 0.24051394
答案 -0.14370616 -0.15259351 -0.22971672 -0.12704912 -0.17885593 -0.0049803546 0.010065989 -0.19445229 -0.11204852 -0.09320777 -0.10426115 -0.19123937 0.19061153 0.21088308 -0.01396064 -0.11395633 0.06440837 0.07446314 0.21108277 0.25973457 -0.0066252067 -0.109521404 -0.14729981 0.35711044 0.15736845 0.10184221 -0.16917813 -0.0943063 -0.11066724 0.016180536 -0.036799654 0.10080134 0.052655485 0.015412561 0.14848667 -0.019507915 0.093046084 -0.011862734 -0.14984164 -0.15912473 0.027095273 -0.0008347085 0.027596684 0.30813962 -0.019050837 -0.10274058 0.04470384 -0.027943438 0.011829968 0.07430022 -0.0045143855 -0.1987264 0.0038969235 -0.20238233 -0.2261678 0.006452774 0.18233442 0.026247839 -0.0015796005 -0.045566645 0.19591297 -0.0133277 0.20925198 -0.015477024 0.14282952 0.14718579 0.07768588 -0.028829 0.060029227 -0.22508204 0.0053434214 0.0051857997 0.19422692 0.062229015 -0.15095082 -0.015931582 -0.17977768 -0.09022158 -0.2259381 0.13239175 -0.19997908 -0.17507811 -0.039752517 -0.0516197 -0.05968915 -0.35166022 -0.1541778 -0.036575295 -0.091563426 -0.034446027 -0.061215006 -0.022386339 0.060434535 -0.072322495 -0.10619758 -0.04562313 -0.099699266 -0.080197774 0.093836494 0.13688837 -0.01474036 -0.20082921 -0.016088901 0.04816266 -0.013661986 -0.028197296 0.19974923 0.12483083 -0.06408144 0.032231115 -0.06699112 -0.0066118073 -0.34467348 0.016579458 -0.050885245 -0.21178909 0.24923036 0.1508805 -0.018717362 0.22054753 0.07775275 -0.12789878 0.34680235 -0.13263348 -0.042991098 0.09788911 -0.05768298 -0.05372627 0.21898164 -0.0037092585 -0.0286058 0.14071529 0.022127146 0.20628484 0.08585436 0.097051814 0.1476843 -0.05088659 0.08395862 0.060130313 0.042373195 0.05388348 0.1296267 0.020538496 0.11641095 0.10660047 0.18453072 -0.11700366 0.051357076 -0.25612143 -0.22426839 0.05634716 -0.05343889 0.106437795 0.019884618 -0.19367294 -0.032211866 -0.065138675 -0.014322451 -0.016351243 -0.077375606 -0.07127121 0.15962413 -0.0067866086 -0.08524145 0.037752237 -0.04244182 -0.060424596 0.11144941 -0.17663231 0.08601498 0.10145429 -0.028669983 0.09998295 0.06132187 0.3050382 0.13045944 0.013792405 0.11324805 0.14444864 -0.03302715 0.12415887 0.120923884 -0.007985938 0.05367957 -0.08494839 -0.042636573 0.34263393 0.14547347 0.05855925 0.026164522 -0.152862 -0.06774234 0.15677454 -0.078548916 0.11018812 0.04215386 -0.1223963 0.08000416 0.15318449
结构 -0.19538666 -0.2110408 -0.3104606 -0.17203622 -0.24362579 -0.009078001 0.008883456 -0.2627654 -0.15685147 -0.124003865 -0.13977262 -0.25800055 0.26273364 0.28676757 -0.021931645 -0.15235485 0.084111124 0.10187151 0.2902494 0.35614014 -0.006540523 -0.15325212 -0.1954366 0.4838674 0.21231619 0.13213772 -0.23051627 -0.1255723 -0.155983 0.017669296 -0.05184562 0.1359166 0.074191764 0.024246529 0.20084107 -0.023883091 0.1245493 -0.015767181 -0.20948783 -0.2106253 0.035685528 -0.0039332043 0.043312635 0.41759652 -0.023016687 -0.1409288 0.061738756 -0.03910175 0.017749663 0.09945477 -0.0031223674 -0.2678022 0.0030853353 -0.27249676 -0.3103984 0.013768812 0.25160864 0.037601624 0.0024876595 -0.060567535 0.2684317 -0.016930467 0.28380987 -0.02124632 0.19987746 0.20511034 0.10325481 -0.041586526 0.08241705 -0.3059345 0.0074876607 0.010765823 0.26111227 0.0790334 -0.19842891 -0.018241698 -0.24804518 -0.12565875 -0.30784765 0.17752703 -0.26489612 -0.23485747 -0.053278398 -0.07180332 -0.08352934 -0.48142284 -0.21177551 -0.050323028 -0.12182593 -0.045663975 -0.08641394 -0.030342164 0.08615468 -0.10391993 -0.14329682 -0.061011188 -0.13417846 -0.1091955 0.12685907 0.18358067 -0.014412404 -0.27237675 -0.019020267 0.06305471 -0.01835005 -0.038599245 0.2753204 0.16813271 -0.08799152 0.040572252 -0.09333942 -0.007866258 -0.466516 0.017542358 -0.07186794 -0.29242548 0.332314 0.20443936 -0.026472228 0.29853916 0.103415355 -0.17503749 0.47076315 -0.17610408 -0.05365378 0.13271882 -0.08113736 -0.06867426 0.2972302 -0.0004568875 -0.038378913 0.19017355 0.031821556 0.2778746 0.11384034 0.13755602 0.19980705 -0.069382556 0.1147437 0.08181956 0.05470928 0.071507335 0.1704131 0.028025871 0.15909134 0.14397755 0.24852672 -0.1563551 0.071602695 -0.34478736 -0.30529058 0.07662466 -0.07618402 0.14368203 0.02965084 -0.2623486 -0.040710773 -0.08358522 -0.024968812 -0.024378793 -0.10797358 -0.10367886 0.21513574 -0.0054536597 -0.1150552 0.050220527 -0.06291979 -0.08496315 0.15153794 -0.23978692 0.1166186 0.13422284 -0.040794663 0.13413475 0.078147 0.41173658 0.1730834 0.024855005 0.15453391 0.19531567 -0.04782352 0.16815268 0.16149911 -0.007829202 0.06825563 -0.117192715 -0.05708989 0.4638444 0.19760197 0.08221786 0.036615018 -0.20483026 -0.09229809 0.21074337 -0.11239156 0.14790253 0.055960108 -0.16637352 0.11047461 0.20342599
关系 -0.22059149 -0.24805318 -0.36086798 -0.19768356 -0.27742735 -0.006486528 0.010386957 -0.3015134 -0.17730267 -0.1510266 -0.16525015 -0.30298784 0.3024301 0.32936737 -0.026102865 -0.17548639 0.0991621 0.11474304 0.33207226 0.41557255 -0.009185445 -0.17842405 -0.22621489 0.5630191 0.25225246 0.15752071 -0.2656973 -0.1448234 -0.17938289 0.022243265 -0.055845223 0.1541055 0.083623596 0.023197299 0.22924559 -0.030430669 0.14608656 -0.020052878 -0.23756483 -0.24633847 0.04150499 -0.0051667327 0.04642978 0.48367706 -0.025407964 -0.16116662 0.07198279 -0.04686584 0.020246688 0.11091573 -0.004544631 -0.31449547 0.004210506 -0.318111 -0.36162728 0.012309399 0.28645685 0.040807974 -0.0014720806 -0.074920766 0.30839303 -0.017525593 0.3321877 -0.021703722 0.22713786 0.23300476 0.12140373 -0.046895307 0.09396487 -0.35235667 0.012249356 0.008515603 0.3027477 0.09245198 -0.2365271 -0.025682082 -0.28534102 -0.14134438 -0.35969853 0.20826632 -0.3115976 -0.27428925 -0.056874774 -0.08584239 -0.09725742 -0.5604466 -0.24360862 -0.055763423 -0.14002886 -0.051899955 -0.09858978 -0.036655936 0.09668597 -0.11707502 -0.16612445 -0.072460964 -0.15481809 -0.12631296 0.14307395 0.20965287 -0.018257128 -0.31644037 -0.023705045 0.068766154 -0.023655757 -0.041584298 0.3131787 0.19289388 -0.09947534 0.050792176 -0.107534766 -0.009190694 -0.53725564 0.026002727 -0.077819504 -0.33986557 0.39155316 0.24119143 -0.030282425 0.3440123 0.123066634 -0.20360066 0.54966027 -0.20854229 -0.06260941 0.1583827 -0.09671903 -0.08147133 0.34558168 -0.0062776865 -0.049840946 0.22062717 0.03837056 0.3277485 0.13630624 0.15840796 0.23204853 -0.083859876 0.13049601 0.095937945 0.0649158 0.081732385 0.198516 0.03398495 0.18594787 0.16411601 0.28893393 -0.18422554 0.087114304 -0.39838243 -0.35513195 0.088672906 -0.08256336 0.16282757 0.0391446 -0.30371162 -0.04994406 -0.097699866 -0.025420697 -0.023393182 -0.12679642 -0.11869189 0.25085953 -0.0061642653 -0.12779714 0.061683055 -0.0697973 -0.09867624 0.17535622 -0.27730456 0.13714367 0.15837261 -0.046294816 0.15528014 0.092101745 0.481257 0.20631129 0.022634216 0.18461433 0.23151092 -0.0573217 0.19529843 0.18693845 -0.009733656 0.07801245 -0.13586172 -0.06606877 0.53909767 0.23102675 0.09360591 0.04324108 -0.23735432 -0.11401258 0.2431793 -0.12594494 0.17004822 0.06447245 -0.19161676 0.13116947 0.24115115
网络 -0.26316243 -0.28886947 -0.42472562 -0.23294322 -0.3306681 -0.009909851 0.013931575 -0.3597162 -0.21183454 -0.17142276 -0.19617847 -0.35307443 0.35429627 0.3923668 -0.02686975 -0.21044913 0.11304673 0.13723098 0.38981026 0.48428 -0.010478824 -0.20858869 -0.26842904 0.65995103 0.2944735 0.18334703 -0.3091004 -0.16792098 -0.20746252 0.023825843 -0.06887168 0.18445843 0.100591846 0.030273609 0.2688841 -0.03734459 0.16683011 -0.02406108 -0.28125784 -0.2886361 0.04776919 -0.004791919 0.052037466 0.57473814 -0.029819166 -0.19343422 0.08368005 -0.05525494 0.022216236 0.13818172 -0.009564788 -0.36764282 0.009921641 -0.37269312 -0.41987076 0.011277709 0.3453669 0.04842756 -0.0029400187 -0.08369084 0.36628956 -0.021778079 0.3835112 -0.028231673 0.26786113 0.2768631 0.14702162 -0.05394686 0.10955542 -0.41418758 0.009714917 0.016311377 0.35942087 0.11659158 -0.27241445 -0.028693935 -0.33550677 -0.16479707 -0.41857177 0.23877952 -0.36732176 -0.32596543 -0.06685201 -0.10137214 -0.11331806 -0.65570706 -0.28593683 -0.06770882 -0.16675463 -0.057999242 -0.11522965 -0.044663414 0.11482305 -0.13782935 -0.19242682 -0.08608164 -0.18248443 -0.15262847 0.1745067 0.24790165 -0.024754595 -0.37134 -0.026572555 0.08735476 -0.026867382 -0.054951396 0.37396863 0.22928457 -0.11550659 0.0570456 -0.12443542 -0.011336804 -0.634102 0.02551718 -0.09254684 -0.39567345 0.45936275 0.27795577 -0.036722396 0.40968725 0.13877612 -0.23696484 0.64743817 -0.24282975 -0.07318863 0.18513106 -0.11158525 -0.099676006 0.40696052 -0.0056669083 -0.056729376 0.2637972 0.043754764 0.38694873 0.16025023 0.18430103 0.27101114 -0.09592893 0.15030245 0.11221084 0.075520195 0.09933435 0.23516259 0.038245905 0.21462733 0.19620481 0.33993822 -0.20828332 0.09753644 -0.4685454 -0.41748536 0.1074809 -0.09929924 0.19674315 0.03871397 -0.3532149 -0.05990962 -0.11746011 -0.031118505 -0.027185546 -0.14500962 -0.1355293 0.29030368 -0.01040516 -0.15292045 0.07344859 -0.08565342 -0.11289123 0.20475408 -0.32115465 0.15871692 0.18399335 -0.05974666 0.17975113 0.11103748 0.5582832 0.23916662 0.028271183 0.21235555 0.26647064 -0.063930884 0.23009437 0.22082289 -0.018513285 0.09703933 -0.16320066 -0.07553507 0.6318853 0.27238104 0.11302231 0.046191096 -0.2822999 -0.12938567 0.2853337 -0.15258804 0.19861077 0.07258087 -0.22895725 0.15162607 0.27617
图像 -0.2557835 -0.27821183 -0.41516957 -0.22764085 -0.32144293 -0.014445252 0.016620005 -0.34497458 -0.20914772 -0.1666296 -0.19355054 -0.34658688 0.3505188 0.3781207 -0.028052472 -0.20478423 0.11329647 0.13103144 0.37998328 0.4742269 -0.008052037 -0.20399366 -0.2637446 0.6372126 0.28692493 0.18424086 -0.29960445 -0.16616727 -0.2051324 0.027687859 -0.06810293 0.18056469 0.092910975 0.026082171 0.26425633 -0.034693256 0.16140056 -0.024452606 -0.2742697 -0.28606573 0.04826427 -0.0034096753 0.052170835 0.56203794 -0.029148217 -0.18627363 0.08401949 -0.058435444 0.023445673 0.13135476 -0.009153597 -0.3554988 0.01103249 -0.3642395 -0.41171324 0.010704715 0.33074948 0.04521331 -0.0035063156 -0.081358485 0.35224214 -0.016280066 0.37532482 -0.026737118 0.25889593 0.26439795 0.14093272 -0.05240542 0.105110675 -0.40639746 0.011756822 0.013300966 0.35131606 0.112248145 -0.27177602 -0.029337075 -0.32269275 -0.15987758 -0.40440384 0.23238106 -0.35783374 -0.31932595 -0.068556175 -0.09154994 -0.10640098 -0.6380546 -0.2756086 -0.06842298 -0.16354921 -0.057504945 -0.115144216 -0.03933155 0.115468875 -0.13867925 -0.18775636 -0.08907537 -0.17723672 -0.15009557 0.16892031 0.24330404 -0.027151749 -0.36108312 -0.022369094 0.08201028 -0.024876295 -0.05031077 0.359774 0.22243209 -0.11269017 0.059532627 -0.12263415 -0.012337239 -0.6196247 0.026643792 -0.09317212 -0.3832464 0.44941166 0.27281332 -0.031865463 0.39610627 0.14063588 -0.23517907 0.6267096 -0.2378472 -0.074259475 0.17628413 -0.10880699 -0.0965895 0.39189816 -0.00076420064 -0.054416586 0.25611934 0.042113993 0.3778147 0.1538004 0.17796886 0.26532325 -0.0917169 0.150403 0.110451564 0.07189343 0.094793424 0.23209038 0.041738577 0.21049713 0.19017126 0.3286482 -0.20575154 0.09917802 -0.45939314 -0.406785 0.10070032 -0.098844536 0.18742275 0.041750085 -0.3488179 -0.05867694 -0.11208843 -0.033671226 -0.028217046 -0.13695347 -0.13243066 0.28404677 -0.011233612 -0.15202633 0.065001525 -0.07953278 -0.11098342 0.20322481 -0.3153885 0.16013332 0.17887633 -0.05628899 0.17599702 0.1084168 0.54336166 0.22860463 0.026433673 0.2067838 0.26204535 -0.0670927 0.2193761 0.21263331 -0.017727982 0.09112438 -0.15849866 -0.07125214 0.6125804 0.26578838 0.10920145 0.045729276 -0.2733298 -0.12974548 0.28142715 -0.1514384 0.19045207 0.0747421 -0.2211867 0.14665629 0.27456567
语言 -0.1910694 -0.20302765 -0.30313477 -0.16619241 -0.23752414 -0.010450589 0.009850774 -0.25688875 -0.14931794 -0.12017352 -0.14438872 -0.25584272 0.25776163 0.27835295 -0.01975008 -0.14603661 0.08560573 0.096346475 0.2819551 0.34651023 -0.01033206 -0.14650418 -0.19476996 0.46908718 0.21039757 0.13404703 -0.22118421 -0.1198988 -0.14806989 0.018268824 -0.05092196 0.1298428 0.06769012 0.020630391 0.19673628 -0.027893145 0.11836819 -0.014122845 -0.20324765 -0.20517543 0.035241313 -0.0045025866 0.038499158 0.41662106 -0.020203063 -0.13536932 0.05764056 -0.043258335 0.018380832 0.0963216 -0.0036881613 -0.25884554 0.0039107753 -0.26463306 -0.30600786 0.008883624 0.24635145 0.03518848 -0.0009799149 -0.06324143 0.26318312 -0.016076876 0.27152807 -0.02160794 0.18925318 0.19577518 0.09992893 -0.04384519 0.07925604 -0.29919052 0.0066254237 0.009537545 0.25736168 0.081292555 -0.19683215 -0.02106645 -0.24293768 -0.122649856 -0.29607597 0.17061798 -0.25789288 -0.23318002 -0.050772958 -0.069780976 -0.08096953 -0.4699787 -0.20518833 -0.04760719 -0.11998386 -0.042929083 -0.0805673 -0.03473254 0.08361685 -0.09881238 -0.13506033 -0.06619601 -0.134916 -0.10481307 0.12521341 0.18050316 -0.017589336 -0.26549414 -0.016703064 0.060133286 -0.02283257 -0.040168203 0.26658562 0.16388416 -0.0840338 0.04216678 -0.086825304 -0.004613587 -0.4541535 0.021231454 -0.06642093 -0.28235954 0.33012763 0.2020351 -0.024073223 0.29094264 0.104119726 -0.16729526 0.4611553 -0.1790285 -0.05581491 0.12715822 -0.07956657 -0.07170211 0.2915447 0.0008605628 -0.035588376 0.18616912 0.024565019 0.27565512 0.11053881 0.1321024 0.19373156 -0.069824904 0.11207481 0.08021116 0.05558948 0.068645306 0.16391297 0.029350355 0.15342943 0.13790327 0.24098554 -0.15373768 0.06808984 -0.3361633 -0.3001649 0.076993026 -0.071580775 0.13755488 0.027715063 -0.25622487 -0.04099859 -0.08590641 -0.022319976 -0.017218428 -0.09967688 -0.09820726 0.21032426 -0.006153036 -0.11290963 0.048958328 -0.06250373 -0.08428354 0.15121488 -0.23021613 0.114024505 0.1265384 -0.04147768 0.13064204 0.08154578 0.40244466 0.17401038 0.023611676 0.15122035 0.1920991 -0.045057923 0.15954997 0.1592197 -0.015310307 0.06840809 -0.11371788 -0.057545554 0.45509547 0.19129258 0.07994408 0.033965647 -0.19850916 -0.092763074 0.20483947 -0.1080772 0.14047219 0.058518674 -0.16281596 0.11173319 0.19685937
表示 -0.22177519 -0.2466429 -0.36227575 -0.19700317 -0.2793843 -0.00979435 0.012018884 -0.30485594 -0.18113238 -0.14476976 -0.16617809 -0.3021732 0.30152914 0.32754892 -0.0227267 -0.17748295 0.09651678 0.1153146 0.3338044 0.4101933 -0.012010303 -0.17630067 -0.2283638 0.558855 0.2512196 0.1574126 -0.26264367 -0.1473793 -0.17650934 0.02383228 -0.05698238 0.1543919 0.08133888 0.024742397 0.23276758 -0.030925475 0.14122581 -0.022165092 -0.23555204 -0.24738133 0.042353906 -0.0013483749 0.047468364 0.48618013 -0.027659096 -0.15979564 0.07022398 -0.04655904 0.020825097 0.111460924 -0.0074210563 -0.31344366 0.005388938 -0.31487024 -0.35926867 0.013415463 0.28929484 0.037991773 0.0006146966 -0.07011051 0.30821934 -0.01619942 0.33036736 -0.025182197 0.2292186 0.23530658 0.119977266 -0.045090802 0.09266683 -0.35051367 0.009902971 0.013219153 0.30289647 0.09789231 -0.23378226 -0.023873702 -0.28525445 -0.14253902 -0.35521805 0.20379277 -0.3106346 -0.27629635 -0.056443438 -0.08416219 -0.0971255 -0.55746657 -0.24161781 -0.05703228 -0.13810621 -0.047212135 -0.101228096 -0.035965845 0.096048325 -0.11581713 -0.16263618 -0.07772619 -0.15436776 -0.12723953 0.14802732 0.21248132 -0.023217535 -0.31034666 -0.019779874 0.07318858 -0.020758525 -0.0418514 0.3121047 0.1905398 -0.101049855 0.048763417 -0.10400865 -0.0069888504 -0.5389869 0.024064245 -0.0821366 -0.33462083 0.38638753 0.2374515 -0.031180462 0.3474715 0.120891884 -0.20341611 0.54866904 -0.20602763 -0.06405447 0.15552305 -0.09224492 -0.084993295 0.34197104 -0.0044108396 -0.047415543 0.22362405 0.036264773 0.32852083 0.13717514 0.15420476 0.22613366 -0.081665434 0.12753184 0.09775364 0.05996264 0.083144456 0.20081405 0.036844876 0.18176515 0.1656103 0.288245 -0.17683998 0.084128484 -0.3990103 -0.35082802 0.09100245 -0.08583682 0.16675219 0.03641773 -0.3020952 -0.050824452 -0.09856298 -0.029362196 -0.02177326 -0.12280994 -0.115401596 0.24659884 -0.010730914 -0.12814495 0.059744395 -0.07076056 -0.09895404 0.17432949 -0.2764594 0.13815942 0.15373859 -0.051472034 0.15699413 0.09306548 0.47311023 0.19952674 0.023494966 0.18364188 0.22661404 -0.052707005 0.1944997 0.18768975 -0.010459775 0.07787447 -0.13741271 -0.063275926 0.5377403 0.2301117 0.09137657 0.04143344 -0.23484272 -0.111931324 0.24479201 -0.12803735 0.17138118 0.06467204 -0.19338842 0.1270091 0.23592187
软件 -0.19220182 -0.20967242 -0.31180346 -0.17314115 -0.23775855 -0.008455953 0.011516791 -0.264299 -0.15495184 -0.123492405 -0.1446445 -0.26078057 0.26271424 0.2846222 -0.022760963 -0.15299363 0.0864341 0.09707305 0.28496313 0.3530493 -0.008556937 -0.15038231 -0.1972369 0.47968793 0.21280402 0.13641429 -0.22707544 -0.1257063 -0.1510637 0.020079628 -0.049887806 0.13075495 0.074317865 0.022833768 0.20057453 -0.027584996 0.12366775 -0.019423146 -0.20363572 -0.21149535 0.035097547 -0.003942363 0.041873094 0.42236716 -0.024391264 -0.14019732 0.058724653 -0.040436074 0.016778119 0.09758166 -0.0034629058 -0.26661432 0.0076873796 -0.2704876 -0.3108312 0.011024864 0.25135294 0.037019763 0.0007838169 -0.06378595 0.26695678 -0.014901157 0.28275985 -0.021824533 0.19939496 0.2022491 0.10445583 -0.04122351 0.08068446 -0.30627245 0.009493562 0.011772668 0.26014516 0.08429404 -0.20215511 -0.019607129 -0.24491888 -0.122498505 -0.30371648 0.17556201 -0.26742482 -0.24068753 -0.047473587 -0.0716728 -0.080476165 -0.48100317 -0.21047847 -0.048660517 -0.121483296 -0.04144787 -0.082146764 -0.032553587 0.08823854 -0.0979191 -0.13865882 -0.0636069 -0.13575667 -0.10771576 0.12492808 0.1824337 -0.014730995 -0.2700655 -0.016498294 0.06144786 -0.021474859 -0.03811576 0.27089423 0.16408284 -0.08376917 0.042715244 -0.093179666 -0.0049454905 -0.46286333 0.023510227 -0.06525362 -0.28772178 0.33387312 0.20623183 -0.023781974 0.2987723 0.10287798 -0.17470089 0.4746263 -0.1787166 -0.055887293 0.13528556 -0.07825126 -0.07158854 0.2966586 -0.0029002829 -0.040661965 0.1886338 0.030262902 0.2792515 0.11709747 0.13494392 0.19638497 -0.071421355 0.10981077 0.07938229 0.054291412 0.073404424 0.17252865 0.030594021 0.15959115 0.14310373 0.24851312 -0.15740828 0.07312504 -0.34320426 -0.30340335 0.07693144 -0.07066014 0.14267233 0.028052408 -0.25812256 -0.047105305 -0.08574627 -0.023640318 -0.022163745 -0.10226731 -0.09782034 0.21517812 -0.0051282444 -0.11043394 0.048976462 -0.061725188 -0.08456258 0.14939116 -0.2379527 0.11557179 0.13471514 -0.04032174 0.13527471 0.080478474 0.4083565 0.17613405 0.022220818 0.15641955 0.19325395 -0.048488088 0.16884212 0.15879016 -0.013074628 0.06922682 -0.11590774 -0.05599198 0.46384683 0.19880573 0.07950357 0.034838334 -0.20405911 -0.09392649 0.2065835 -0.10923318 0.14407934 0.057083584 -0.16317457 0.110317394 0.20587166
数据库 -0.16386457 -0.17880654 -0.25956628 -0.14276391 -0.20459515 -0.0073921573 0.011957875 -0.22328152 -0.12689877 -0.104978725 -0.11832556 -0.217269 0.21755691 0.24231064 -0.016597474 -0.12944654 0.07029818 0.086588085 0.23989548 0.2983128 -0.00763909 -0.12803563 -0.16354524 0.40655872 0.17740461 0.11162065 -0.18726355 -0.10361826 -0.12934248 0.015495122 -0.03956363 0.11128236 0.06280823 0.019036733 0.16923305 -0.02250425 0.10105051 -0.013151202 -0.17337506 -0.17892516 0.02722268 -0.0006709213 0.03388735 0.35302904 -0.017833348 -0.11721521 0.04827049 -0.034456145 0.014214629 0.083058596 -0.0035244385 -0.22634266 0.0015273375 -0.22960532 -0.25745445 0.006272713 0.2115789 0.030773928 0.0009950808 -0.049055263 0.22562118 -0.012676716 0.23692484 -0.014808539 0.16670857 0.16971108 0.085739024 -0.033130597 0.068377025 -0.2558386 0.006856254 0.0074543157 0.22100309 0.0697438 -0.16741134 -0.020579675 -0.2059906 -0.100910954 -0.2581294 0.14773202 -0.22457494 -0.20024967 -0.042554174 -0.060473572 -0.06884252 -0.40053397 -0.17820339 -0.043594968 -0.102129065 -0.038062993 -0.07136874 -0.02878439 0.074913695 -0.08762681 -0.119578145 -0.055313993 -0.11532154 -0.09157706 0.1086691 0.15551132 -0.013141065 -0.22383708 -0.016778259 0.049871888 -0.019191112 -0.029460564 0.22967975 0.13741899 -0.07068146 0.035135534 -0.08010621 -0.006301975 -0.3865096 0.016542125 -0.057728298 -0.24365146 0.28390542 0.17396069 -0.023649747 0.25237066 0.08749975 -0.14310879 0.39926726 -0.15061562 -0.043715317 0.11365586 -0.06544981 -0.0592247 0.2458718 -0.002272312 -0.032795712 0.16069604 0.025355628 0.2351241 0.096524596 0.11271572 0.16370614 -0.060178544 0.09117588 0.06901782 0.04734075 0.062134076 0.1471677 0.02535556 0.13395767 0.117719516 0.20922007 -0.13118087 0.059469637 -0.28825164 -0.25647625 0.06447544 -0.063123465 0.116037205 0.025823357 -0.22069423 -0.03976801 -0.07138058 -0.022548785 -0.017990684 -0.08809915 -0.08384555 0.18295643 -0.00674783 -0.09574399 0.045193188 -0.05259101 -0.069005884 0.12895024 -0.19975035 0.09832707 0.1114214 -0.034676127 0.111614466 0.06577888 0.3462312 0.14778925 0.016581975 0.12890728 0.16237788 -0.038898457 0.1407306 0.13664399 -0.0065508094 0.06049645 -0.10034366 -0.04462729 0.38850546 0.1684907 0.06562567 0.026330642 -0.17050146 -0.07896709 0.17736672 -0.089791894 0.12067853 0.044977523 -0.140665 0.09309117 0.172597
系统 -0.23145483 -0.25837073 -0.37823898 -0.20838788 -0.29071823 -0.010756269 0.012077351 -0.32092857 -0.18920425 -0.15124483 -0.17626265 -0.31773123 0.3145233 0.3476918 -0.023917414 -0.18735904 0.10131692 0.119651765 0.34792244 0.43246302 -0.011149949 -0.18665044 -0.23802432 0.58478826 0.2598831 0.16353591 -0.27630058 -0.1504682 -0.18731987 0.021719234 -0.05935503 0.16079268 0.08832065 0.025332674 0.24168792 -0.033071227 0.1500807 -0.021193549 -0.25128406 -0.2572418 0.040249985 -0.0024817607 0.047229975 0.5103376 -0.02600219 -0.1717681 0.07273882 -0.048123475 0.020323655 0.12159075 -0.005195974 -0.3276882 0.009610473 -0.32673293 -0.3771479 0.013840467 0.3060085 0.04029792 -0.0021267391 -0.07364403 0.3257822 -0.022444632 0.34328908 -0.022054698 0.24229784 0.2446825 0.1296236 -0.049794067 0.09498074 -0.36882845 0.0089581115 0.013510921 0.31962407 0.10271057 -0.2452863 -0.026686568 -0.29566205 -0.14634022 -0.36912042 0.21109161 -0.32735276 -0.29102153 -0.062023886 -0.090543546 -0.10220598 -0.5845559 -0.2523104 -0.060174473 -0.14530177 -0.050859783 -0.099955514 -0.038496148 0.10568819 -0.12469939 -0.17224984 -0.07952458 -0.16454548 -0.13433619 0.15397336 0.22233501 -0.023229413 -0.32658607 -0.022727793 0.078572944 -0.025499832 -0.044532638 0.32954034 0.20139048 -0.10274932 0.050537124 -0.11304218 -0.006274195 -0.5655505 0.027010355 -0.082839385 -0.34895635 0.40618816 0.24750546 -0.028820423 0.35962296 0.12784831 -0.20877574 0.5753439 -0.21682958 -0.06713867 0.16362563 -0.09710028 -0.08716541 0.35994458 -0.0010280212 -0.046564966 0.22904591 0.03587184 0.34167132 0.13883007 0.16593415 0.24230628 -0.08793845 0.1332107 0.09605148 0.0674246 0.09044119 0.20984702 0.037932385 0.19034143 0.17271654 0.3016278 -0.1860832 0.088815905 -0.41916782 -0.37200463 0.09112803 -0.08805232 0.17288849 0.035288073 -0.31846693 -0.052441597 -0.10264271 -0.031140754 -0.025634104 -0.12838422 -0.120969996 0.2575343 -0.008898711 -0.13488112 0.06482088 -0.076215744 -0.10106692 0.18449846 -0.2856071 0.14362416 0.16436563 -0.052981883 0.16434175 0.09744944 0.49526298 0.21282806 0.028063688 0.1899028 0.23589344 -0.058727056 0.20044549 0.19524692 -0.01657341 0.08581091 -0.14415208 -0.065374255 0.5636527 0.23861413 0.09940864 0.04166708 -0.2500945 -0.11776021 0.25539103 -0.13259646 0.1778074 0.06627713 -0.20046672 0.13339424 0.2475508
使用 -0.21095891 -0.23197448 -0.34241223 -0.18894611 -0.26551104 -0.008999924 0.014322634 -0.28614128 -0.17217645 -0.13863547 -0.15699033 -0.28703448 0.28764912 0.3157381 -0.025237154 -0.16713291 0.09356481 0.1083967 0.317058 0.3922275 -0.009270721 -0.16580278 -0.21427375 0.52700263 0.23553002 0.14724468 -0.24725328 -0.13555054 -0.16597044 0.017989067 -0.05419225 0.14398304 0.08056424 0.021710077 0.21777095 -0.031442437 0.1378377 -0.018972002 -0.2254805 -0.23668583 0.039980758 -0.0026355658 0.044936117 0.4607731 -0.026077403 -0.15389994 0.06634811 -0.043485396 0.017832454 0.11110567 -0.007930302 -0.29549435 0.006854174 -0.29553506 -0.33733365 0.009120254 0.2772322 0.03580221 -0.003331421 -0.06782497 0.29148597 -0.015237465 0.30946535 -0.023858508 0.21807115 0.22288208 0.11596483 -0.043850817 0.0844797 -0.33198816 0.010871375 0.009907946 0.28586817 0.09230084 -0.22032695 -0.025139283 -0.27068657 -0.135216 -0.3346591 0.19402835 -0.29538393 -0.26366225 -0.05831542 -0.077706225 -0.09100052 -0.5257689 -0.23242618 -0.05433409 -0.13248925 -0.045526084 -0.09059127 -0.033056878 0.09555741 -0.11028749 -0.15394022 -0.06922335 -0.14686088 -0.122575216 0.13873626 0.2022518 -0.020960402 -0.29584643 -0.020559885 0.06656089 -0.022286994 -0.040161274 0.2990757 0.18300524 -0.092213094 0.04565058 -0.102788806 -0.006653275 -0.5118155 0.023240818 -0.076385714 -0.315766 0.3701014 0.22557476 -0.029257849 0.3264521 0.113904454 -0.18994753 0.5215596 -0.19673145 -0.059357494 0.1467726 -0.08918455 -0.076535515 0.32736126 -0.0018066745 -0.044132106 0.20966057 0.033562053 0.30722466 0.13038991 0.14559433 0.21415593 -0.081034034 0.12099351 0.087455526 0.061751258 0.07770681 0.18982348 0.032608025 0.17163092 0.1551055 0.26882467 -0.17090908 0.07864689 -0.3770819 -0.33358392 0.083044745 -0.077810735 0.15712649 0.03327405 -0.2839536 -0.051623814 -0.09548838 -0.024486437 -0.022527216 -0.114004314 -0.10977037 0.23344459 -0.0069750124 -0.122064024 0.053975098 -0.066285655 -0.09244526 0.16855294 -0.26239353 0.12780774 0.14630604 -0.04582304 0.14886947 0.09034321 0.45284766 0.19033073 0.02083397 0.17319699 0.21803439 -0.052190185 0.18532261 0.17672443 -0.0130678285 0.075127624 -0.12805957 -0.0631479 0.5122678 0.21562852 0.090827174 0.039860666 -0.22554529 -0.10748932 0.22864427 -0.12004107 0.15904807 0.062573746 -0.18482092 0.12046241 0.22650772
下列 -0.1270506 -0.1360089 -0.20596942 -0.11546951 -0.15637891 -0.0055079414 0.008347759 -0.17296255 -0.103808045 -0.08078141 -0.097377904 -0.17145663 0.17111875 0.18858506 -0.01654048 -0.10242054 0.054089908 0.06315061 0.18918876 0.23083648 -0.006661084 -0.10126163 -0.12850603 0.3162348 0.14240013 0.0869255 -0.15143423 -0.08268146 -0.099019766 0.013264463 -0.030957524 0.086860105 0.048118558 0.010632172 0.12913007 -0.020179784 0.0785605 -0.012568813 -0.1368962 -0.14235237 0.02401103 -0.001720835 0.025575805 0.27547488 -0.012497822 -0.090358846 0.040096365 -0.027844897 0.009194509 0.061350334 -0.0050068623 -0.17658858 0.0044683027 -0.17842971 -0.20078692 0.008467434 0.16244411 0.022998549 -0.0013066329 -0.043132253 0.17317839 -0.009294862 0.18328795 -0.0122685395 0.12998493 0.13271032 0.07001359 -0.02925609 0.052957453 -0.20119809 0.008691145 0.008622176 0.17416082 0.05554439 -0.1305471 -0.011823472 -0.16381535 -0.08242236 -0.1996697 0.117328726 -0.1784105 -0.1555082 -0.032180708 -0.046121083 -0.0568082 -0.31879053 -0.13556723 -0.029995231 -0.07991602 -0.02993046 -0.053587705 -0.020264897 0.053961784 -0.06552643 -0.090910465 -0.04369113 -0.08826924 -0.072890975 0.08569173 0.12284654 -0.01246224 -0.17793049 -0.015247224 0.040569637 -0.01196973 -0.023337401 0.179283 0.11022705 -0.05861936 0.02804877 -0.05859583 -0.0036741989 -0.30697465 0.014535093 -0.046403356 -0.18758146 0.22096258 0.13492258 -0.017354248 0.1951781 0.068808354 -0.11480111 0.3085681 -0.11525708 -0.035749994 0.08799081 -0.051055726 -0.044601094 0.19639832 -0.0026775533 -0.02793088 0.12402256 0.018104538 0.18252814 0.075635724 0.08923291 0.13032714 -0.0466622 0.0715292 0.05224333 0.03642443 0.048057556 0.11555392 0.01922343 0.10091033 0.09661187 0.16534738 -0.10297558 0.04595448 -0.22842316 -0.19810443 0.047828633 -0.047878686 0.09469931 0.018844469 -0.16961175 -0.02811073 -0.05751063 -0.014741577 -0.01298115 -0.06959044 -0.062495697 0.14211372 -0.005449767 -0.0763566 0.030700754 -0.038177446 -0.05549061 0.09660186 -0.15863988 0.077068515 0.0908139 -0.025567185 0.08858988 0.05097016 0.27241966 0.11611679 0.015035194 0.10432273 0.13041498 -0.028427824 0.1109852 0.10438463 -0.008683776 0.048685335 -0.07818131 -0.03748704 0.30589822 0.12804243 0.05094469 0.023589402 -0.13613054 -0.062724665 0.13968283 -0.069331676 0.09538338 0.033671137 -0.11016721 0.07508522 0.1322849
算法 -0.17472501 -0.19134553 -0.28503782 -0.15910657 -0.22423916 -0.0069178767 0.0073467284 -0.24231884 -0.14146705 -0.112448275 -0.13648519 -0.23459463 0.23682322 0.26033482 -0.017689912 -0.14181642 0.08127689 0.091778934 0.263413 0.32820582 -0.010798617 -0.1364943 -0.17919837 0.44511747 0.20043628 0.1264063 -0.21115518 -0.11500623 -0.14227907 0.017749121 -0.046323467 0.120728545 0.066645585 0.021209577 0.18342078 -0.025790628 0.11040091 -0.018119788 -0.189581 -0.19838595 0.031172624 -0.0014394798 0.034052268 0.386797 -0.021265348 -0.13086434 0.053636402 -0.040855043 0.018359384 0.087342374 -0.0062582106 -0.24830997 0.0043958635 -0.25167316 -0.28344965 0.009904232 0.22948058 0.03125394 -0.005301174 -0.05565792 0.24416582 -0.01818342 0.25718004 -0.01865463 0.17763393 0.18568604 0.09828015 -0.036384765 0.07131925 -0.27597517 0.007862595 0.0077044084 0.24224155 0.07359217 -0.18334885 -0.020563958 -0.22749397 -0.11489195 -0.2774419 0.1588262 -0.2448193 -0.2183862 -0.049744356 -0.068033025 -0.074443206 -0.44494873 -0.19389088 -0.04278302 -0.10807597 -0.03831102 -0.0786054 -0.030486017 0.07829794 -0.08993514 -0.12938069 -0.05841392 -0.12428486 -0.098067686 0.11539882 0.16889478 -0.017944446 -0.24843559 -0.016839083 0.054270223 -0.02341993 -0.03429623 0.2536272 0.15022515 -0.07763228 0.041490346 -0.0880656 -0.003254578 -0.42628312 0.017573293 -0.060569443 -0.269702 0.30633417 0.18854433 -0.022317598 0.27313426 0.09486482 -0.15827584 0.4329856 -0.1627821 -0.0507204 0.120448 -0.07514251 -0.067195304 0.2761392 0.00014683991 -0.033072546 0.17744589 0.024822624 0.26123813 0.10778166 0.12144791 0.18076137 -0.0641089 0.104302995 0.07661016 0.04778834 0.06754559 0.15441652 0.032674473 0.14361325 0.13060944 0.22596508 -0.14348958 0.06726637 -0.3163374 -0.2780341 0.071763 -0.06631629 0.1316291 0.023310784 -0.23798726 -0.040613193 -0.08090506 -0.019795299 -0.018793086 -0.097701706 -0.09016873 0.19441192 -0.006799405 -0.10765241 0.048518326 -0.05624436 -0.0807024 0.14191982 -0.21725975 0.108328655 0.12371727 -0.039240688 0.12093363 0.07712843 0.37550083 0.16277938 0.020422261 0.14569928 0.17828557 -0.04436907 0.14978892 0.14792006 -0.008978022 0.06284839 -0.11129154 -0.046950433 0.4280889 0.1797208 0.07781218 0.031710893 -0.19018535 -0.08970987 0.19220011 -0.09805937 0.13319531 0.048361693 -0.15020084 0.100403495 0.18980932
模式 -0.158905 -0.16935976 -0.25371107 -0.14243945 -0.19634232 -0.008306383 0.0076372754 -0.21703872 -0.12748308 -0.10303219 -0.11377052 -0.20895723 0.21525447 0.2344473 -0.015814746 -0.120769925 0.06755489 0.07973615 0.23410608 0.28728136 -0.0075090723 -0.12669003 -0.1588119 0.396995 0.17155933 0.106995806 -0.18770921 -0.10434769 -0.12848996 0.014594971 -0.04068302 0.106466524 0.05998852 0.017402476 0.16189095 -0.018415833 0.10228872 -0.016244939 -0.1714163 -0.17405307 0.028549625 -0.0037729917 0.033756882 0.34428355 -0.020141331 -0.11117144 0.046023093 -0.03549211 0.01084091 0.07929041 -0.002866892 -0.21730937 0.002320706 -0.22135024 -0.25272924 0.009648025 0.20562965 0.028388793 0.0030444176 -0.052946948 0.21927357 -0.01565297 0.22712785 -0.019888943 0.1602668 0.1637265 0.087846346 -0.031584583 0.06157299 -0.24778837 0.0043610753 0.00968646 0.21596311 0.06276304 -0.1633117 -0.013578226 -0.19757596 -0.10377986 -0.24939609 0.14371525 -0.21486075 -0.19422677 -0.03800604 -0.06185289 -0.06814755 -0.3894883 -0.17263964 -0.038590617 -0.0993095 -0.037049994 -0.0701803 -0.026565444 0.07074984 -0.08047049 -0.11323548 -0.0494225 -0.10555622 -0.09071497 0.1075449 0.15128778 -0.0123436 -0.21934734 -0.018777816 0.051877707 -0.013589862 -0.028547976 0.21909103 0.13518547 -0.07059537 0.033313744 -0.07159709 -0.005903006 -0.3815389 0.012094123 -0.059823625 -0.2393041 0.27744216 0.17110513 -0.02068396 0.24544846 0.081908315 -0.14224711 0.3879117 -0.14687073 -0.04234253 0.11236421 -0.070340306 -0.05987192 0.24113525 -0.003678712 -0.03482099 0.15339133 0.022964533 0.2309811 0.09800672 0.10836217 0.16270977 -0.058396425 0.093376204 0.06219953 0.04797723 0.06161056 0.14055125 0.026404222 0.12957904 0.11369246 0.20071593 -0.12681311 0.060102955 -0.2781365 -0.24602333 0.06370791 -0.061078597 0.112467594 0.021728115 -0.21476021 -0.038466133 -0.07146353 -0.019006277 -0.019703342 -0.09062491 -0.084356956 0.177216 -0.0014839692 -0.090175726 0.039379593 -0.052013937 -0.06764211 0.12666483 -0.19045427 0.09648353 0.109183654 -0.038041517 0.106318116 0.0661529 0.3337941 0.14052239 0.015633438 0.1298695 0.16050673 -0.035491027 0.13582593 0.12955679 -0.0043350924 0.055479906 -0.09273919 -0.042514216 0.37654445 0.16340612 0.06645704 0.030899398 -0.16691856 -0.07912338 0.17013134 -0.08880648 0.11774338 0.04541173 -0.13696623 0.09384987 0.16605012
采用 -0.21396452 -0.23178208 -0.34573042 -0.18885703 -0.2709366 -0.010971678 0.009512446 -0.2916253 -0.17376676 -0.14169239 -0.15701199 -0.29167485 0.29285908 0.31920967 -0.023777926 -0.1697387 0.09564231 0.109485656 0.31872055 0.396432 -0.00836668 -0.16661502 -0.22085321 0.5365906 0.23964825 0.14902973 -0.2537215 -0.1382675 -0.17108448 0.018945178 -0.05328445 0.14932823 0.08241514 0.022164648 0.2230879 -0.030421134 0.13973892 -0.01649482 -0.22821404 -0.23906025 0.04125545 -0.004321697 0.04388024 0.47047544 -0.02306813 -0.15429924 0.06854264 -0.04470416 0.016668655 0.11063109 -0.006602096 -0.29893866 0.0052626966 -0.30336773 -0.3415498 0.008907216 0.27886334 0.036568753 -0.0031757194 -0.07131834 0.29813397 -0.018360859 0.31659353 -0.02127602 0.21816513 0.22424644 0.11937289 -0.046513878 0.0872095 -0.34018046 0.011942204 0.0122259725 0.28895584 0.09034395 -0.22145113 -0.022945756 -0.27064985 -0.13670897 -0.34112397 0.19741783 -0.3001918 -0.26560658 -0.053943902 -0.080493025 -0.09454797 -0.53595114 -0.23139624 -0.05740757 -0.13138886 -0.046586737 -0.09228877 -0.033375785 0.09198113 -0.113400236 -0.15648516 -0.07450501 -0.146861 -0.12258081 0.1431509 0.20506485 -0.017366463 -0.30225378 -0.022196231 0.06656321 -0.023446586 -0.04417157 0.3048452 0.1828915 -0.09385232 0.049547177 -0.101084396 -0.010061637 -0.51827145 0.024523545 -0.07797744 -0.32306057 0.37175733 0.22992882 -0.030950822 0.33054996 0.11520568 -0.19531165 0.52635336 -0.2021654 -0.061649483 0.1499726 -0.09145337 -0.07885391 0.33217943 -0.00011768255 -0.04602881 0.21452713 0.033682108 0.31492752 0.12663917 0.1526713 0.21770394 -0.07920529 0.122730054 0.09171845 0.059789177 0.07804888 0.19226047 0.03200246 0.17791203 0.16136806 0.27275535 -0.17190117 0.082687035 -0.3819661 -0.3425454 0.08561343 -0.083236165 0.15821043 0.03045497 -0.28910765 -0.05143742 -0.09646253 -0.026433922 -0.022404062 -0.11810587 -0.10978438 0.24043657 -0.0072917254 -0.12277698 0.05913271 -0.07079826 -0.09342273 0.16739334 -0.26381785 0.12883204 0.15036488 -0.04498753 0.14815184 0.08685137 0.45749477 0.19618404 0.022372345 0.17647752 0.21817434 -0.049922045 0.1859907 0.18226756 -0.014005678 0.07592313 -0.13276803 -0.061650753 0.51276255 0.2199899 0.09091547 0.036021646 -0.2260829 -0.10367913 0.23165038 -0.12168559 0.16309518 0.062248483 -0.18707485 0.12354866 0.22875407
问题 -0.23930252 -0.25930062 -0.38925582 -0.21296489 -0.30243573 -0.007197883 0.011283097 -0.32217 -0.19025308 -0.15338273 -0.17914833 -0.32069322 0.32657522 0.35468167 -0.028727453 -0.19000262 0.10724011 0.12577412 0.35462987 0.44446906 -0.013619039 -0.18700813 -0.24218042 0.59620684 0.2683395 0.17174767 -0.28116378 -0.15761235 -0.19253372 0.02116265 -0.062374998 0.16609082 0.09150792 0.023945449 0.25033104 -0.036965076 0.15376392 -0.019626468 -0.25586876 -0.26754424 0.04195196 -0.0042902716 0.050998714 0.5221354 -0.031681802 -0.17656581 0.07472934 -0.05196376 0.019877974 0.121550955 -0.00832024 -0.33218592 0.00938043 -0.3368841 -0.38516298 0.015396555 0.30693164 0.042575657 5.77819e-05 -0.07875654 0.3333734 -0.022479689 0.35154507 -0.025072971 0.24573126 0.24693023 0.13402635 -0.048170075 0.095095865 -0.3738852 0.009433326 0.01297864 0.325871 0.104349114 -0.25088558 -0.028630864 -0.3069189 -0.15459819 -0.37873584 0.21888946 -0.33552337 -0.29709467 -0.06272855 -0.088507846 -0.100241244 -0.59761125 -0.2574603 -0.061632946 -0.15019234 -0.05182443 -0.107241556 -0.04158038 0.10330956 -0.1276514 -0.1775009 -0.08166794 -0.16608158 -0.1373923 0.1598967 0.22603945 -0.022870176 -0.33272234 -0.021183273 0.07919518 -0.027068703 -0.046865214 0.33591083 0.20543997 -0.10313605 0.057467412 -0.111203775 -0.006537312 -0.5793449 0.025935713 -0.08672585 -0.35983655 0.41667974 0.25498462 -0.030978326 0.37241942 0.12943968 -0.21622172 0.5854089 -0.22007921 -0.06822644 0.16365825 -0.097928 -0.087066226 0.37076357 0.00034047206 -0.047865987 0.23563091 0.03489635 0.3469344 0.14621858 0.16842711 0.24746092 -0.087859064 0.14071727 0.1021452 0.06580001 0.09198536 0.21406418 0.04014803 0.1921647 0.18001914 0.30751076 -0.1913273 0.092900716 -0.42818615 -0.37630305 0.09488251 -0.087917864 0.17459722 0.034654908 -0.32573503 -0.053008292 -0.10342182 -0.026269553 -0.026568532 -0.12845063 -0.12669116 0.26263022 -0.009437926 -0.13791537 0.066169195 -0.07359188 -0.103133775 0.18740496 -0.2966557 0.14831989 0.16612467 -0.053497765 0.16681983 0.09777657 0.508339 0.21360539 0.025816284 0.1971426 0.24005659 -0.060602445 0.20786391 0.20115915 -0.012631171 0.08637059 -0.14652765 -0.066612214 0.5778513 0.24685413 0.099074215 0.043731265 -0.25111645 -0.119841024 0.25750178 -0.13706078 0.17818277 0.06575089 -0.20646152 0.14092882 0.25211713
操作系统 -0.17256916 -0.18716049 -0.27692068 -0.15328003 -0.21288867 -0.0061330176 0.011507646 -0.23433356 -0.13693936 -0.11230446 -0.12961249 -0.22697663 0.22906278 0.25367182 -0.02031789 -0.13725187 0.07525162 0.09027369 0.2538061 0.3139453 -0.008282462 -0.1326903 -0.17408086 0.4253635 0.19007355 0.120661326 -0.19783029 -0.10905078 -0.13509567 0.014514308 -0.04511961 0.11631122 0.06280616 0.016647575 0.17733915 -0.024859777 0.10672627 -0.013099514 -0.18084422 -0.18826519 0.028815258 -0.0038688614 0.036698513 0.37491438 -0.020111084 -0.124165684 0.05176172 -0.038026243 0.01279507 0.08511667 -0.0035138975 -0.23562884 0.004144693 -0.23761475 -0.2737342 0.010980793 0.21943542 0.030181363 0.000659602 -0.055112645 0.23440707 -0.014151573 0.2507956 -0.0156155145 0.17268011 0.17769761 0.09319814 -0.036279425 0.0723671 -0.2709938 0.0057083745 0.007368919 0.23318525 0.071507454 -0.17783754 -0.01986699 -0.21541747 -0.109565616 -0.26959753 0.15379956 -0.2389836 -0.21329753 -0.046626337 -0.062418543 -0.074314594 -0.4250295 -0.18551786 -0.041134406 -0.10903584 -0.03771597 -0.072206646 -0.030391168 0.07622409 -0.086234294 -0.12502362 -0.059184097 -0.12060165 -0.099675216 0.109754555 0.16124298 -0.013195032 -0.23840858 -0.016254386 0.056840334 -0.018536692 -0.03488301 0.24094868 0.14550857 -0.07763714 0.037290692 -0.083464526 -0.006583495 -0.4097993 0.019335637 -0.058444317 -0.25370157 0.29648775 0.18204409 -0.02485241 0.2618096 0.09359497 -0.15502873 0.4199757 -0.15667228 -0.049088374 0.11982208 -0.07265372 -0.064831 0.2602961 3.7790862e-05 -0.035515595 0.16804151 0.026736028 0.25028753 0.101757385 0.11790183 0.17593116 -0.0625433 0.09690014 0.069969594 0.051285 0.06332797 0.15102026 0.02631988 0.13994339 0.12614974 0.22095397 -0.13647564 0.06281759 -0.30450022 -0.27175778 0.06753125 -0.06545184 0.12621237 0.026451644 -0.2284124 -0.03946082 -0.07618002 -0.023343932 -0.018962028 -0.09024025 -0.08719434 0.19073325 -0.0046743886 -0.10106251 0.042646047 -0.051308915 -0.075894184 0.13052434 -0.21227439 0.106431976 0.12043064 -0.03887752 0.119179115 0.07295452 0.36264837 0.15378337 0.019354185 0.13935956 0.17346217 -0.041938435 0.15042469 0.14384253 -0.012428908 0.0609631 -0.10502773 -0.051712003 0.4113232 0.17352991 0.0733251 0.029576771 -0.18129043 -0.08337842 0.18614 -0.097605 0.1285661 0.050295226 -0.14725426 0.09759192 0.17861728
错误 -0.1742018 -0.18868484 -0.2783867 -0.1555345 -0.21403614 -0.0042935098 0.007454776 -0.23585545 -0.13685048 -0.11128139 -0.1269019 -0.23108836 0.23171325 0.25826165 -0.020284716 -0.13917467 0.07656952 0.085739315 0.25320858 0.3167218 -0.007022741 -0.13379821 -0.17731753 0.42846888 0.19003914 0.122002214 -0.20654033 -0.10895353 -0.1379176 0.0170603 -0.044076525 0.12318485 0.062285546 0.017653907 0.1760476 -0.027991666 0.112286344 -0.013648409 -0.1819814 -0.19450547 0.034341883 -0.0009850117 0.03347745 0.38031515 -0.018776236 -0.122050986 0.054019343 -0.03769485 0.017722834 0.084377915 -0.008040152 -0.24059309 0.0037957 -0.24510877 -0.27548063 0.008037196 0.2237567 0.031223437 -0.0027964148 -0.053812187 0.24196233 -0.017107978 0.25616404 -0.02066006 0.17728345 0.1805717 0.09296496 -0.034582436 0.0710837 -0.2706822 0.0070702396 0.011312547 0.23524046 0.07780964 -0.17752726 -0.020493321 -0.22128315 -0.11253864 -0.2708123 0.16006386 -0.24310993 -0.21514474 -0.0437685 -0.06581198 -0.072717674 -0.4329735 -0.18767041 -0.04497082 -0.110312596 -0.039756954 -0.07726668 -0.030200692 0.07451829 -0.09038452 -0.12963872 -0.05719859 -0.12353413 -0.098813504 0.11535675 0.1675001 -0.012729132 -0.24489146 -0.020856125 0.05796317 -0.016249252 -0.03443596 0.24534988 0.14677665 -0.07590291 0.035812344 -0.08226025 -0.0041236905 -0.41585588 0.016928285 -0.061410856 -0.25938308 0.3022466 0.18689889 -0.025021533 0.26778486 0.090836346 -0.15650369 0.42524 -0.16183266 -0.049171437 0.12255574 -0.073493406 -0.0617509 0.26725906 -0.004404701 -0.034525916 0.1716136 0.027460001 0.2507916 0.10153642 0.11885284 0.17419545 -0.066907935 0.097505465 0.07510452 0.04985053 0.06381254 0.15160687 0.029551502 0.14064932 0.12953298 0.22341879 -0.14203581 0.066652365 -0.3101092 -0.272765 0.066016205 -0.06897382 0.1293037 0.027198158 -0.23077153 -0.04087226 -0.077084176 -0.016929332 -0.021401977 -0.09763212 -0.0899356 0.18946512 -0.0067607057 -0.10423035 0.044031005 -0.053189978 -0.07749192 0.13232157 -0.21109346 0.10435175 0.11958105 -0.03515052 0.11904932 0.07485023 0.36873662 0.15760222 0.01913358 0.1435992 0.17802466 -0.040948622 0.15030538 0.14287938 -0.0073967637 0.06408661 -0.105335526 -0.049595937 0.4173767 0.17414461 0.071871616 0.028462281 -0.1867105 -0.08774067 0.18730846 -0.09695637 0.13253787 0.047282156 -0.14956588 0.09679632 0.18654768
实体 -0.1584088 -0.18232031 -0.27049157 -0.14952974 -0.20207067 -0.004874093 0.0046318145 -0.2193682 -0.12955368 -0.11488208 -0.12811145 -0.22543515 0.22834992 0.24113502 -0.022571666 -0.13645215 0.07294875 0.0820972 0.2436702 0.30189946 -0.002251665 -0.13181315 -0.1635076 0.41692796 0.18681319 0.116027065 -0.1969375 -0.10943368 -0.13320485 0.01700446 -0.042397443 0.11466889 0.059918318 0.019935658 0.16360824 -0.017224956 0.10768927 -0.018322347 -0.17672488 -0.1845855 0.026164915 -0.0022674848 0.03547217 0.34990674 -0.025746785 -0.11758456 0.05439709 -0.032710332 0.01699307 0.079163946 -0.0043605645 -0.23224491 0.0068970495 -0.23197295 -0.26934406 0.009518617 0.20794338 0.033541564 0.0044634123 -0.058219373 0.22703789 -0.017190961 0.24853466 -0.014998979 0.16388087 0.17467913 0.094497986 -0.038180556 0.07031487 -0.26375866 0.0038107047 0.0056316247 0.22230119 0.06589428 -0.17776468 -0.017317297 -0.20784526 -0.10052574 -0.2693844 0.15050492 -0.23548993 -0.19851945 -0.042927206 -0.0701374 -0.0713177 -0.41736418 -0.18043405 -0.043920748 -0.10403767 -0.03991755 -0.073149875 -0.021624856 0.07117943 -0.08763908 -0.1251275 -0.05148646 -0.119494684 -0.100016005 0.10020234 0.15734571 -0.013520124 -0.23126142 -0.014981741 0.05019097 -0.020087764 -0.030666776 0.22650766 0.141793 -0.07170881 0.03740295 -0.0775587 -0.0037792346 -0.39584363 0.01973027 -0.05578186 -0.24592413 0.2858555 0.17634891 -0.02424915 0.25690517 0.08731516 -0.14810413 0.40765226 -0.15109083 -0.04189033 0.1182164 -0.0696288 -0.062279858 0.24989887 -0.005292346 -0.03747005 0.16789281 0.033500552 0.2413785 0.102308705 0.12106509 0.1730631 -0.063383296 0.0920619 0.075809136 0.040463116 0.06314863 0.14711353 0.0307509 0.13754989 0.12245919 0.21765298 -0.13523787 0.069985 -0.29452953 -0.26266927 0.072662584 -0.057045117 0.11834467 0.03139365 -0.22308356 -0.038324155 -0.07053777 -0.014783959 -0.020624477 -0.09159136 -0.0844465 0.18219194 -0.0012404299 -0.09217852 0.042551074 -0.054102357 -0.067211315 0.13052358 -0.20430036 0.09724358 0.11052551 -0.030037638 0.11613221 0.06667059 0.35546678 0.15024695 0.021290231 0.14012854 0.16759042 -0.038315404 0.13915288 0.13676791 -0.0017494825 0.054480933 -0.0974463 -0.0415102 0.40134373 0.1740357 0.06316764 0.0340307 -0.16989551 -0.08539151 0.1723681 -0.0950678 0.13264963 0.04502342 -0.14418569 0.09769926 0.17594604
计算 -0.20063457 -0.22185999 -0.32713026 -0.17794566 -0.2547015 -0.008423853 0.014572335 -0.2718563 -0.1636252 -0.13505852 -0.14885873 -0.27256528 0.27517033 0.29830214 -0.025599103 -0.15894684 0.08844706 0.105780795 0.30147874 0.3720977 -0.006621986 -0.15776807 -0.20667204 0.50642216 0.22475371 0.14288719 -0.23602258 -0.13211785 -0.15974128 0.016789092 -0.05516421 0.14071588 0.07891599 0.022640578 0.20763731 -0.02855128 0.12628812 -0.0186551 -0.2189089 -0.22359641 0.03657826 -0.003806656 0.040286377 0.4424864 -0.02595545 -0.14663063 0.06411147 -0.042417098 0.02008556 0.10559657 -0.006733621 -0.2812008 0.00397024 -0.28575483 -0.32226065 0.009987308 0.2640359 0.034974787 -0.0034901523 -0.065493934 0.28062648 -0.017114073 0.2975597 -0.021629607 0.20609792 0.2115607 0.114851475 -0.04324303 0.083344154 -0.3157111 0.011139402 0.010487933 0.27199307 0.08998786 -0.21372062 -0.020846998 -0.2564612 -0.12834471 -0.32240534 0.18600136 -0.2787019 -0.2505318 -0.050309937 -0.07360652 -0.08386321 -0.50439876 -0.21983324 -0.04994702 -0.1241656 -0.04672817 -0.09005408 -0.033037264 0.09113229 -0.10674662 -0.15085799 -0.06935115 -0.14320648 -0.114833735 0.13185994 0.18936098 -0.017853817 -0.282492 -0.021717537 0.06303943 -0.022010526 -0.041836552 0.28478482 0.17555231 -0.08781026 0.043285232 -0.09505273 -0.0046068765 -0.48724744 0.024021482 -0.071012914 -0.3054834 0.3531681 0.21750896 -0.026645191 0.3138784 0.10901885 -0.17999284 0.49571007 -0.18689987 -0.058740966 0.14254078 -0.08558824 -0.07180496 0.30968672 -0.0008812429 -0.041014023 0.2017811 0.031089427 0.2952435 0.121343635 0.1382848 0.20918585 -0.07591432 0.11388232 0.08497391 0.059495144 0.07616215 0.18188289 0.034037847 0.16270974 0.15154989 0.25955 -0.16231874 0.0794446 -0.36195913 -0.3226439 0.08089916 -0.07890605 0.14576945 0.030609587 -0.2736178 -0.048317697 -0.087953314 -0.026660291 -0.021330107 -0.10736255 -0.104057886 0.22200853 -0.008286249 -0.11478232 0.05384667 -0.06429233 -0.091055825 0.16063015 -0.24809413 0.121650964 0.13836287 -0.046905246 0.13948435 0.0822315 0.42668688 0.1845335 0.022282857 0.16510387 0.20661755 -0.051701993 0.17646112 0.16947703 -0.012456807 0.07201034 -0.12586093 -0.05768631 0.48730344 0.21049802 0.08622472 0.033941414 -0.21671845 -0.10147421 0.21866988 -0.11768399 0.15111156 0.05736254 -0.1712405 0.11772204 0.2154456
用户 -0.21277182 -0.23174858 -0.34089515 -0.18570682 -0.26245257 -0.0098872455 0.013496311 -0.28403434 -0.16956702 -0.13986617 -0.15897931 -0.28340024 0.28641203 0.31351605 -0.021454118 -0.16420749 0.092348814 0.108674616 0.31289712 0.38974005 -0.0073930193 -0.1690556 -0.21291463 0.5279932 0.2360711 0.14671132 -0.24539275 -0.1336997 -0.16689244 0.019708835 -0.055261537 0.14488624 0.07735526 0.021339877 0.21983877 -0.027937328 0.13215898 -0.02038738 -0.2240837 -0.23197612 0.037660737 -0.0023167992 0.045819655 0.46218604 -0.025794838 -0.15342484 0.06397503 -0.044369336 0.016827995 0.10890302 -0.007066963 -0.29256088 0.0066471226 -0.2983677 -0.33876657 0.010622225 0.27467397 0.0392665 0.0002419349 -0.065848075 0.2939971 -0.016950715 0.30778402 -0.024281792 0.21665084 0.22185764 0.11806814 -0.043520916 0.085644126 -0.3342443 0.007976316 0.012838522 0.28362143 0.08993434 -0.2214147 -0.025798617 -0.26957756 -0.13554634 -0.33522367 0.19376664 -0.2951047 -0.26091054 -0.055825215 -0.08134607 -0.09096482 -0.5269872 -0.23169334 -0.052649815 -0.13485605 -0.045983214 -0.09317605 -0.033553977 0.0906788 -0.107822984 -0.15214701 -0.06889283 -0.14866303 -0.11853211 0.14054967 0.20135103 -0.018005062 -0.293641 -0.02052765 0.06536075 -0.022823883 -0.03932045 0.29606977 0.1813129 -0.09169238 0.04549792 -0.099864446 -0.007888334 -0.50761354 0.022311442 -0.0724873 -0.31608188 0.36641037 0.22595696 -0.025789175 0.3274965 0.115272835 -0.18833649 0.51875746 -0.1960479 -0.058521155 0.1456797 -0.08695395 -0.07804298 0.3258041 -0.0024048064 -0.044303697 0.21135181 0.034133956 0.3089993 0.12718336 0.14787653 0.21308845 -0.0809068 0.11951686 0.089756414 0.0589875 0.077781044 0.18853575 0.030927768 0.17319864 0.15381798 0.27049956 -0.17118564 0.078813165 -0.37715775 -0.33543772 0.082006365 -0.07868856 0.1555996 0.034184467 -0.2872004 -0.049849734 -0.092028715 -0.023554262 -0.0212549 -0.11614594 -0.11151268 0.2349263 -0.0094009 -0.11978062 0.05798689 -0.06393486 -0.09418671 0.16693603 -0.2582479 0.12810358 0.14584926 -0.045338318 0.14585267 0.0868095 0.44997323 0.18965301 0.025501411 0.16945429 0.21356265 -0.0503903 0.18233481 0.1784353 -0.012736755 0.078391984 -0.13099527 -0.061888102 0.50707537 0.2161381 0.090591915 0.036117304 -0.22264974 -0.10680124 0.22740474 -0.11897863 0.15844367 0.05902386 -0.18174008 0.120452166 0.22544457
进行 -0.24047484 -0.2623439 -0.38884825 -0.21304855 -0.29898205 -0.01204879 0.012341954 -0.32920036 -0.19600989 -0.15804373 -0.18050708 -0.32608116 0.32604223 0.35614628 -0.02836837 -0.19381312 0.10294846 0.1219228 0.3584349 0.4453095 -0.011810754 -0.18778369 -0.24467744 0.6017072 0.26985013 0.16838893 -0.28529343 -0.15657194 -0.19323935 0.023057234 -0.05977725 0.16614838 0.08919265 0.027536847 0.24902937 -0.035628118 0.15445784 -0.020159537 -0.260304 -0.26529598 0.04235642 -0.006087625 0.04838491 0.5277551 -0.031664126 -0.17300823 0.07476264 -0.051999725 0.020937901 0.1264509 -0.006551443 -0.3354842 0.0074987854 -0.3395552 -0.38372695 0.013443172 0.3133593 0.042851508 -0.0014603799 -0.07703881 0.33588502 -0.020082725 0.3537045 -0.024744947 0.2447023 0.24804568 0.13054453 -0.048343845 0.099039316 -0.3820462 0.008593454 0.011308815 0.32801688 0.105769046 -0.2517408 -0.024820963 -0.30529463 -0.15141802 -0.3800546 0.22106421 -0.33539957 -0.2975302 -0.062524825 -0.087054946 -0.10331165 -0.5999671 -0.26423824 -0.05966187 -0.15173376 -0.05110667 -0.10632829 -0.04178761 0.10844256 -0.12639408 -0.17537057 -0.08022254 -0.16628614 -0.13901463 0.15821542 0.22954951 -0.023104316 -0.3365709 -0.02549028 0.075510636 -0.026589837 -0.04606397 0.34036186 0.20993091 -0.106525324 0.054500107 -0.11693679 -0.0066036833 -0.5798506 0.028286755 -0.08712485 -0.36485144 0.42160857 0.25527805 -0.032374877 0.3745151 0.12968288 -0.21570773 0.5920179 -0.22286752 -0.06636988 0.16788073 -0.099988714 -0.088993594 0.3696322 -0.0036408568 -0.053160578 0.23983036 0.03732988 0.35163394 0.14572243 0.1712353 0.24688222 -0.08782431 0.140795 0.10229574 0.06716778 0.09312987 0.21682084 0.036923956 0.19668277 0.17675386 0.30686557 -0.19478123 0.092305705 -0.42710772 -0.38029444 0.09521257 -0.09046903 0.17582287 0.033790477 -0.32435492 -0.057613563 -0.10783227 -0.032290116 -0.026831834 -0.12962586 -0.12516828 0.2673801 -0.008139045 -0.14254771 0.06385049 -0.07718724 -0.10808956 0.1904821 -0.29847544 0.14694889 0.16536403 -0.051901907 0.16772084 0.10072899 0.5104776 0.21616738 0.024723435 0.19343363 0.24337068 -0.061690427 0.20710032 0.20001905 -0.017471204 0.08551612 -0.14909248 -0.071202695 0.5804004 0.24800186 0.10398183 0.042512037 -0.25398505 -0.11630479 0.2626859 -0.13873501 0.18247603 0.06996579 -0.20688178 0.13928644 0.25644925
功能 -0.19850706 -0.22025642 -0.3253943 -0.1770374 -0.25142547 -0.010949075 0.012502872 -0.2707394 -0.16195421 -0.13150392 -0.14791739 -0.26952758 0.27378416 0.2955877 -0.021812158 -0.15831776 0.08912767 0.10507758 0.29799056 0.36832023 -0.007133655 -0.1583278 -0.20182548 0.49737814 0.2202732 0.14177272 -0.23643978 -0.1297058 -0.15707058 0.018657828 -0.04965169 0.13553497 0.076193064 0.021624396 0.20902109 -0.028216427 0.12493046 -0.016414188 -0.21539536 -0.22158426 0.037960872 -0.004957337 0.0427109 0.43942362 -0.026559236 -0.14799148 0.06487069 -0.042455915 0.017928204 0.10232052 -0.006947725 -0.2775676 0.0034776449 -0.2819872 -0.32304877 0.008986514 0.26208723 0.03812515 -0.0027093026 -0.06363728 0.27658066 -0.018898906 0.29317096 -0.020841323 0.20791444 0.20745343 0.11117609 -0.044520147 0.08206337 -0.3161293 0.009924641 0.012101736 0.26972038 0.08696816 -0.20762135 -0.023462793 -0.25608745 -0.12661044 -0.3197142 0.18301207 -0.27858108 -0.24843414 -0.054060552 -0.07615146 -0.087122664 -0.49888116 -0.21930091 -0.050071772 -0.12819116 -0.045149498 -0.0908122 -0.033292476 0.08863421 -0.10610909 -0.14563356 -0.066465534 -0.14064692 -0.11704768 0.12934227 0.18984322 -0.015774073 -0.28162658 -0.019685948 0.06551414 -0.020611947 -0.0400189 0.2839065 0.17215113 -0.0857286 0.04594972 -0.097019054 -0.008500632 -0.48351222 0.023295857 -0.06976374 -0.29858962 0.3462553 0.21047191 -0.024940474 0.3091408 0.10726339 -0.17798248 0.4910292 -0.18477024 -0.056218766 0.1411969 -0.08473079 -0.076085426 0.30673924 -0.0026449524 -0.042729173 0.2009542 0.02886328 0.29115304 0.1227265 0.13836068 0.20544557 -0.07507847 0.117966995 0.086709484 0.0594014 0.07481592 0.17928107 0.029073618 0.16289175 0.14643373 0.25629547 -0.15972002 0.07458152 -0.35687438 -0.31898427 0.07931351 -0.07752631 0.14683759 0.032231733 -0.26899967 -0.046914656 -0.08785525 -0.023683412 -0.023281123 -0.107654035 -0.101657264 0.22187348 -0.0099305045 -0.11825457 0.051986214 -0.06130872 -0.08885592 0.15497622 -0.2453006 0.12237849 0.13698462 -0.04556364 0.13754307 0.08134627 0.427705 0.18200454 0.024058888 0.16316006 0.2060703 -0.048939466 0.17527516 0.16701068 -0.014944166 0.07372101 -0.123644255 -0.057716414 0.48374876 0.20377411 0.08660544 0.034201685 -0.21199922 -0.1018814 0.2188719 -0.11364742 0.15325588 0.056286946 -0.17065834 0.118114494 0.21316586
处理 -0.19426522 -0.21330486 -0.3170454 -0.17533603 -0.24530667 -0.0077067167 0.011396165 -0.2633385 -0.15382974 -0.12739655 -0.14716764 -0.2601417 0.26451266 0.2874925 -0.021359473 -0.15387984 0.086750805 0.10205259 0.28916624 0.3609033 -0.0067376266 -0.15197591 -0.19679898 0.48170006 0.21499486 0.13843395 -0.22922556 -0.12387313 -0.15317263 0.02048221 -0.050820336 0.13400167 0.0721619 0.02123041 0.20386453 -0.028428625 0.12467083 -0.016782777 -0.20810892 -0.21298125 0.035675284 -0.0054476107 0.03914396 0.42624897 -0.021666562 -0.14197326 0.06091455 -0.039518613 0.019524325 0.10283514 -0.0060993494 -0.27059487 0.006123933 -0.27494842 -0.31301522 0.010981172 0.25355643 0.03465299 -0.002423601 -0.06453527 0.27141997 -0.015762474 0.28779003 -0.0192949 0.20177095 0.20518182 0.10882746 -0.041735988 0.0816087 -0.30706295 0.0073428047 0.008723048 0.26360926 0.08179615 -0.20123626 -0.020917162 -0.24814683 -0.12155023 -0.31029105 0.18002217 -0.2707829 -0.24105129 -0.05263561 -0.0725419 -0.083837815 -0.48416466 -0.21219614 -0.049301412 -0.123406276 -0.04283856 -0.0892255 -0.0311504 0.08391856 -0.10267543 -0.14328055 -0.06599007 -0.13822238 -0.10975289 0.1272831 0.18389502 -0.018308792 -0.27019972 -0.016289173 0.062250867 -0.0182723 -0.040942065 0.27652913 0.16936256 -0.08347262 0.04196811 -0.094605036 -0.006036825 -0.47054914 0.020246778 -0.0708974 -0.29221323 0.33802012 0.20907307 -0.024382297 0.30142683 0.107610546 -0.17663759 0.47743303 -0.18273489 -0.05464237 0.13553388 -0.08016268 -0.07006488 0.3005201 -0.00093338406 -0.04079027 0.19468643 0.029628197 0.28498673 0.11979318 0.13330954 0.2012259 -0.07083063 0.11343216 0.081621855 0.053913087 0.07356467 0.17154308 0.030495845 0.15997677 0.14381595 0.24728408 -0.15803845 0.07321048 -0.34489036 -0.31073964 0.080046445 -0.07259707 0.14326812 0.028924465 -0.26166767 -0.04726668 -0.082984336 -0.025256412 -0.019576838 -0.10741913 -0.09996207 0.21806554 -0.007126857 -0.113105185 0.054301947 -0.06279457 -0.08461469 0.15273695 -0.23869543 0.118637435 0.13462928 -0.040567927 0.13618699 0.07865903 0.4111349 0.17832576 0.019638099 0.15673988 0.19918561 -0.045597628 0.16789438 0.16054365 -0.014794125 0.07287082 -0.12032498 -0.053174425 0.4659025 0.20112774 0.079575375 0.031886805 -0.20825551 -0.096128836 0.21065381 -0.11436304 0.1470119 0.054419383 -0.16496892 0.11450413 0.20785972
属于 -0.1578084 -0.16986589 -0.25525028 -0.14171696 -0.19790329 -0.0058256695 0.0070999567 -0.21675916 -0.124915875 -0.10533928 -0.11676562 -0.21264057 0.21630438 0.23370332 -0.017255737 -0.12376303 0.07024028 0.08163186 0.23389806 0.2918754 -0.004209301 -0.124228925 -0.15922716 0.3937196 0.17677958 0.11210588 -0.18281758 -0.09978102 -0.1257324 0.015660662 -0.03927883 0.110412456 0.056794103 0.017420242 0.16580626 -0.022124363 0.10083992 -0.015708124 -0.17070708 -0.17440537 0.031158037 -0.0022525406 0.03451166 0.3451181 -0.019152131 -0.112524815 0.051003616 -0.031811036 0.013359497 0.08015128 -0.0019147435 -0.22227204 0.005269776 -0.22211802 -0.2522269 0.010100015 0.20737934 0.027119348 -0.00080616743 -0.04996109 0.21807435 -0.013102537 0.22839978 -0.01850827 0.16176295 0.16637239 0.08531357 -0.03563784 0.0659013 -0.25021085 0.007725576 0.010715247 0.21391138 0.06957586 -0.16504334 -0.016054073 -0.2004628 -0.10013504 -0.24853419 0.1460233 -0.22213899 -0.1947861 -0.043435775 -0.06020288 -0.06679437 -0.39639595 -0.1740655 -0.04091814 -0.10135522 -0.036782216 -0.069376215 -0.023880573 0.067724824 -0.08315825 -0.11727498 -0.055598576 -0.10861122 -0.088530906 0.10160226 0.14998154 -0.01190365 -0.21883693 -0.017240414 0.051355433 -0.016815616 -0.031069655 0.222225 0.13456568 -0.0705069 0.036321543 -0.075440265 -0.008388323 -0.3823737 0.014473863 -0.055160437 -0.23789416 0.27360848 0.16817929 -0.019675741 0.24195616 0.08509901 -0.14178401 0.38960034 -0.14658126 -0.04508251 0.11011027 -0.0670822 -0.057519227 0.24409753 -0.00062805496 -0.034573376 0.15871446 0.023641707 0.22913936 0.09736434 0.11316117 0.16385415 -0.058695458 0.09206237 0.06487866 0.045708224 0.05924365 0.13865778 0.023548337 0.13000992 0.11881792 0.20376062 -0.12584671 0.058178835 -0.28328648 -0.25218576 0.06270187 -0.0597844 0.11461595 0.024874244 -0.21615008 -0.035637956 -0.07240162 -0.020053124 -0.018247418 -0.087782264 -0.08291843 0.17662874 -0.0042095645 -0.09372529 0.04386053 -0.051506512 -0.0712595 0.12592965 -0.19242437 0.09843992 0.111236654 -0.03559399 0.10978539 0.065541826 0.33582282 0.14508517 0.016237197 0.12981072 0.16119775 -0.039624844 0.13954446 0.12986888 -0.0069437153 0.056769483 -0.094477184 -0.047290735 0.3815845 0.16297582 0.067201756 0.027237615 -0.16483513 -0.07589937 0.17204344 -0.087476194 0.121425144 0.042570256 -0.13392252 0.09111969 0.16988869
模型 -0.1727717 -0.18566023 -0.2759078 -0.15354088 -0.21631685 -0.0071468726 0.011859175 -0.23135811 -0.13677897 -0.11478815 -0.12576978 -0.22984603 0.23012671 0.2544612 -0.022023467 -0.13437784 0.0783534 0.0880992 0.25664064 0.31871885 -0.0065146186 -0.13755287 -0.17228438 0.42685223 0.19339663 0.11857361 -0.20104502 -0.11401591 -0.13346513 0.01585164 -0.045528073 0.11983059 0.06623778 0.020403428 0.17577443 -0.023483917 0.11024318 -0.01679147 -0.18091075 -0.19065723 0.031436697 -0.0017928072 0.033133138 0.37102157 -0.022454565 -0.12402124 0.052846547 -0.038853113 0.017041486 0.086235054 -0.0032235133 -0.24008012 0.0066792667 -0.24388863 -0.27754197 0.010696716 0.2211305 0.028623872 0.0021432594 -0.057510357 0.23480278 -0.016919555 0.2530887 -0.019626152 0.17721887 0.18141468 0.09275206 -0.03455739 0.07276116 -0.27274004 0.008696506 0.011145283 0.23063289 0.071820095 -0.17936873 -0.021493278 -0.21859626 -0.10706285 -0.2720897 0.15970168 -0.23584685 -0.21075332 -0.044255365 -0.06327222 -0.07665838 -0.42993113 -0.18445714 -0.045006696 -0.108253755 -0.04038951 -0.07655518 -0.028972981 0.07792369 -0.08739258 -0.1246416 -0.054543667 -0.11788285 -0.09606627 0.108714044 0.16063192 -0.013834865 -0.24255842 -0.018937396 0.05328605 -0.019828808 -0.031115262 0.2407485 0.14950095 -0.07275508 0.039259706 -0.0825155 -0.0050297673 -0.41461957 0.01887652 -0.06176715 -0.2560702 0.29540297 0.18288949 -0.022248326 0.26437214 0.09255799 -0.15668057 0.42249474 -0.16198313 -0.051595666 0.12091682 -0.07284872 -0.060438484 0.25925604 -0.0034399654 -0.037932537 0.16965924 0.030602075 0.25123253 0.1040976 0.11852901 0.17265484 -0.06600707 0.09675982 0.075053826 0.04560739 0.0627854 0.155873 0.02574167 0.1427006 0.12531857 0.22020069 -0.13774458 0.0656647 -0.30690777 -0.27102488 0.067385234 -0.06731299 0.12444361 0.03012859 -0.23315716 -0.03908629 -0.07296152 -0.021942768 -0.01842153 -0.097444974 -0.09150653 0.19163711 -0.0071220603 -0.10139167 0.045795333 -0.051828537 -0.07635649 0.13594358 -0.21151055 0.10154791 0.12228984 -0.038871475 0.116095 0.06912558 0.3639431 0.1531645 0.017787559 0.13793206 0.17536241 -0.04110324 0.15024096 0.14332585 -0.0075914483 0.06007425 -0.10446055 -0.050584305 0.41315526 0.17764246 0.07478041 0.032220904 -0.18140286 -0.082667135 0.18808788 -0.0997308 0.13267526 0.048187975 -0.14955607 0.10177017 0.18418469
描述 -0.15862313 -0.16782077 -0.2501224 -0.13705234 -0.19420186 -0.00531899 0.0069730585 -0.21209587 -0.12594506 -0.10278158 -0.11780496 -0.21160614 0.21337838 0.23194559 -0.016021986 -0.1256839 0.071128175 0.079667516 0.23258291 0.2871921 -0.008170006 -0.12427582 -0.16004342 0.38732725 0.17549065 0.10678321 -0.18238677 -0.10384758 -0.12146613 0.014288828 -0.03973713 0.108753696 0.056132194 0.019928895 0.16213699 -0.023136858 0.09997985 -0.0135188475 -0.16876031 -0.17132281 0.030806463 -0.0012863618 0.033221252 0.3404571 -0.017098084 -0.10960553 0.047190443 -0.030399814 0.012798059 0.07686829 -0.0017768694 -0.2173067 0.0040438366 -0.2208818 -0.2533295 0.010755371 0.20082907 0.02636552 -0.0025719805 -0.048338614 0.21758075 -0.013343065 0.2295661 -0.015915517 0.15635262 0.16345723 0.086651534 -0.032575503 0.064801924 -0.24610686 0.0075219586 0.005618277 0.21366203 0.06530594 -0.1619651 -0.014711141 -0.19769664 -0.09992969 -0.24622634 0.14443061 -0.21476142 -0.19488825 -0.041352976 -0.059901435 -0.0665349 -0.38979456 -0.17155717 -0.040032625 -0.095789276 -0.03639248 -0.06633988 -0.025516339 0.06924505 -0.08374278 -0.113754414 -0.053066842 -0.111898854 -0.08787192 0.10473944 0.14563505 -0.01264274 -0.2202063 -0.017010497 0.049340505 -0.014995893 -0.03160848 0.2229907 0.13447888 -0.068366714 0.03773857 -0.07340989 -0.008465783 -0.37718323 0.01558855 -0.053149294 -0.2362339 0.2715177 0.16391532 -0.021940537 0.24131805 0.08643074 -0.14038801 0.38094416 -0.14237975 -0.046603672 0.10995801 -0.065744445 -0.05919383 0.24200055 0.0012573168 -0.029991375 0.15505368 0.022770364 0.2258185 0.0920132 0.110782854 0.1594837 -0.059487455 0.09273206 0.06286057 0.04464251 0.05733704 0.13912436 0.02729947 0.12661567 0.1170745 0.20153306 -0.12566733 0.061325677 -0.2786979 -0.24465582 0.06407528 -0.06019732 0.11214232 0.023496209 -0.20931466 -0.037010483 -0.06744449 -0.017634198 -0.018864833 -0.085069835 -0.08082271 0.17173022 -0.0076601077 -0.09353381 0.038688175 -0.05118376 -0.06645712 0.11991073 -0.19398728 0.093153514 0.109679386 -0.03118379 0.10571086 0.0655993 0.33437616 0.14229773 0.018024625 0.1275214 0.15818231 -0.038461633 0.1358428 0.1311717 -0.007878992 0.05620338 -0.09605784 -0.04243418 0.37674233 0.16026525 0.06529009 0.028924132 -0.16751358 -0.07684697 0.17180379 -0.08818093 0.11837351 0.045586 -0.13405062 0.0901237 0.16563983
信号 -0.2257102 -0.25291526 -0.37223053 -0.20338689 -0.28612828 -0.011659565 0.010768953 -0.31373376 -0.18358038 -0.14790823 -0.17162645 -0.31493413 0.31396276 0.33689812 -0.026586073 -0.18563838 0.1014985 0.11956595 0.34193325 0.4232171 -0.009206195 -0.18289869 -0.23642848 0.5730043 0.25786993 0.16505778 -0.27175185 -0.15058406 -0.179757 0.022980567 -0.05870349 0.15749289 0.08403282 0.020963227 0.23902112 -0.03025926 0.1485647 -0.017095555 -0.24712886 -0.25663897 0.043394096 -0.002943613 0.04593484 0.50584674 -0.03146977 -0.16724159 0.07220687 -0.050728608 0.019112222 0.1219993 -0.006247695 -0.3234918 0.009101558 -0.32210028 -0.3652039 0.010270042 0.30155766 0.03901716 0.0006130233 -0.07396038 0.3174104 -0.020523626 0.34049135 -0.021431075 0.23705298 0.23850247 0.12682052 -0.047146708 0.09624144 -0.36009872 0.013138817 0.011622029 0.31607985 0.10259933 -0.2412338 -0.024878068 -0.2890454 -0.14030263 -0.36034268 0.20926338 -0.32503393 -0.28623313 -0.059903964 -0.08465314 -0.09555974 -0.5715413 -0.25256687 -0.05780235 -0.14744762 -0.0488589 -0.101463206 -0.03819644 0.10062543 -0.12193049 -0.17023782 -0.083365284 -0.1606521 -0.13582489 0.15305547 0.22045796 -0.023557942 -0.3233258 -0.023381649 0.077461824 -0.022747502 -0.04728883 0.32318705 0.1974225 -0.09918201 0.053388417 -0.11210667 -0.010361436 -0.55632895 0.02360957 -0.08286409 -0.34315318 0.403042 0.24616845 -0.031973064 0.3560392 0.12301066 -0.21167663 0.5651791 -0.21213186 -0.0669966 0.16193898 -0.09732344 -0.082605205 0.3570377 -0.0011273429 -0.051826183 0.22740453 0.037798274 0.33562544 0.13866656 0.15961848 0.23903154 -0.08368626 0.13685931 0.09805296 0.063326135 0.08427101 0.20728834 0.037023783 0.18550082 0.1718919 0.2932346 -0.18729664 0.08602111 -0.40778968 -0.36678612 0.094646044 -0.08953981 0.17016485 0.03553642 -0.31228578 -0.055261854 -0.10344466 -0.030483976 -0.02726655 -0.12359869 -0.119574666 0.2536716 -0.006549754 -0.13623057 0.062110137 -0.07065758 -0.100379534 0.18227571 -0.28476843 0.1373562 0.15781064 -0.052436337 0.15782633 0.095523745 0.48616546 0.20845903 0.02279169 0.18715164 0.23528518 -0.055081606 0.20181869 0.1902296 -0.012920599 0.083190024 -0.13823259 -0.061993916 0.55037916 0.23966275 0.098257005 0.04249907 -0.24636097 -0.11174923 0.25389865 -0.131369 0.17457958 0.062436968 -0.19874729 0.13448915 0.24722397
基本 -0.16996634 -0.1852081 -0.2705347 -0.14888993 -0.20951322 -0.0050244993 0.012146162 -0.22751488 -0.13458364 -0.112237275 -0.12425162 -0.22529168 0.22439831 0.2479163 -0.01854168 -0.13482355 0.07486163 0.08651032 0.24742009 0.31078184 -0.008186201 -0.1335813 -0.17115775 0.41874754 0.18890837 0.11760216 -0.20063822 -0.106316395 -0.13503252 0.0146101555 -0.042203594 0.11536676 0.059980504 0.018987734 0.1702031 -0.022620486 0.107008055 -0.013212027 -0.17767365 -0.18349104 0.029094862 -0.003768785 0.03219654 0.36784735 -0.02136171 -0.12339816 0.052760106 -0.03747448 0.013335514 0.08740349 -0.0045700716 -0.23530345 0.006101379 -0.23608747 -0.2713547 0.010900644 0.21761756 0.0321045 -0.0019183676 -0.054667506 0.2305725 -0.012305297 0.24708252 -0.018931305 0.16994502 0.17582394 0.092896804 -0.037441324 0.06785789 -0.2622378 0.008595997 0.009902851 0.22630368 0.072315075 -0.17624216 -0.01647305 -0.21396877 -0.10471201 -0.26423973 0.15322796 -0.23021828 -0.20861697 -0.044717237 -0.06401476 -0.07263468 -0.42022273 -0.17948349 -0.041171648 -0.106553316 -0.037343346 -0.07594765 -0.027216835 0.072504215 -0.08646734 -0.12156188 -0.05654021 -0.11515298 -0.09501185 0.111525714 0.15962607 -0.015321549 -0.23382325 -0.017444981 0.051519066 -0.016418124 -0.033898715 0.23755781 0.1416488 -0.07613069 0.038517382 -0.0815773 -0.003782023 -0.40082592 0.015789842 -0.059329133 -0.25253472 0.29093114 0.17739932 -0.022193834 0.25605062 0.0892413 -0.15135927 0.409304 -0.15720862 -0.046837512 0.117865235 -0.0730239 -0.06047647 0.26054227 -0.00032754437 -0.03543933 0.16554792 0.028656598 0.24413978 0.09884436 0.11847545 0.17111947 -0.06386534 0.097311 0.072340205 0.045194004 0.06114616 0.15045534 0.02425063 0.13895027 0.12372442 0.21613728 -0.1355817 0.06514095 -0.30035096 -0.26620874 0.066515185 -0.0665862 0.12274663 0.02629944 -0.22614737 -0.035814352 -0.073275015 -0.017071769 -0.016909907 -0.09198808 -0.08816675 0.18742488 -0.005318402 -0.09844863 0.04205126 -0.053658504 -0.071030535 0.1326363 -0.2068153 0.10205988 0.118672095 -0.034449447 0.115313 0.06752055 0.3592708 0.14999722 0.017221713 0.13837737 0.17042364 -0.03866244 0.1449223 0.14093193 -0.008164024 0.060600046 -0.1026787 -0.050192874 0.40338016 0.17061952 0.07162014 0.029731734 -0.17947888 -0.08453955 0.18457171 -0.097791895 0.12653457 0.04908092 -0.14594094 0.09922259 0.17609188
方式 -0.21159558 -0.23140243 -0.3440509 -0.1869557 -0.26678312 -0.0072395373 0.011506918 -0.2893605 -0.17027941 -0.14034693 -0.15775323 -0.28771493 0.29162562 0.31213683 -0.024656028 -0.16676234 0.09360081 0.10718341 0.31678316 0.3937477 -0.011058075 -0.16606468 -0.21721649 0.53112644 0.23671746 0.14970706 -0.25012407 -0.13440777 -0.16739067 0.016452646 -0.056197427 0.14841038 0.077824734 0.02361055 0.21633615 -0.03240455 0.13746439 -0.018050723 -0.22698162 -0.23880573 0.037256848 -0.0030399745 0.045002323 0.46785173 -0.026007604 -0.15502632 0.06766162 -0.047244687 0.015244428 0.109513275 -0.006708888 -0.2936002 0.004425542 -0.29844013 -0.34254467 0.013676354 0.27289048 0.03908003 -0.0027999075 -0.06970702 0.29548475 -0.018004647 0.30924788 -0.022547208 0.21806017 0.21924514 0.11737805 -0.047135867 0.0877797 -0.3356793 0.009239763 0.008646614 0.2897691 0.08985389 -0.21955994 -0.025424983 -0.27159458 -0.13650727 -0.33663073 0.1926104 -0.29517654 -0.26300883 -0.057112154 -0.08170782 -0.090882935 -0.5321991 -0.22805129 -0.05649014 -0.13126086 -0.0463826 -0.09391224 -0.032769844 0.09541592 -0.1125381 -0.15491898 -0.073460296 -0.14638428 -0.11895118 0.14199829 0.20086816 -0.016823027 -0.29707128 -0.023379032 0.070375964 -0.023978105 -0.044747382 0.30140907 0.18175857 -0.09186518 0.048263993 -0.09829505 -0.0069640554 -0.5097357 0.02163915 -0.07335702 -0.32007074 0.37274286 0.22491765 -0.02812167 0.3271368 0.115520194 -0.19383141 0.52444166 -0.19615515 -0.05911002 0.14587381 -0.089168385 -0.077793695 0.32842246 -0.002566025 -0.047150835 0.21202378 0.03531612 0.30997315 0.12768252 0.1473143 0.21854885 -0.07586257 0.12249092 0.08660488 0.060908664 0.081670806 0.19312899 0.035784677 0.17495129 0.1594184 0.26921782 -0.1707519 0.078593716 -0.37915573 -0.3377233 0.08122261 -0.078970104 0.15775895 0.033779204 -0.2899143 -0.050005425 -0.091320075 -0.022602445 -0.023140926 -0.11563295 -0.10850787 0.23633695 -0.007730476 -0.12539287 0.057911698 -0.0675986 -0.093519725 0.16501378 -0.26300538 0.13139385 0.1464616 -0.048098553 0.14412422 0.09000196 0.44886678 0.19401091 0.025835292 0.17054497 0.21793707 -0.04992851 0.1830361 0.17956516 -0.011117961 0.075757906 -0.12851435 -0.062486522 0.5103329 0.22150755 0.090206124 0.038373176 -0.22337997 -0.10302847 0.23064375 -0.11987501 0.16140607 0.059890702 -0.17986265 0.12416418 0.22335638
光盘 -0.1857134 -0.20387773 -0.30277017 -0.16347474 -0.23322019 -0.007133652 0.013300336 -0.2562356 -0.14874102 -0.12303311 -0.13922791 -0.2518998 0.25588414 0.27400595 -0.020048276 -0.14820519 0.08016099 0.0935218 0.27543673 0.34115145 -0.0094687585 -0.14923249 -0.19070946 0.4649514 0.20679729 0.13209939 -0.22022827 -0.12314425 -0.14731888 0.016922444 -0.050291643 0.1294138 0.07239342 0.019334609 0.19012259 -0.0235964 0.12011997 -0.018832002 -0.19970979 -0.20796533 0.035914194 -0.0016182156 0.03914894 0.40872923 -0.021345498 -0.1352933 0.05599457 -0.041963037 0.017466225 0.09536362 -0.005252206 -0.2601627 0.0037216519 -0.26516008 -0.29784945 0.010695399 0.24449931 0.03362646 -0.0041758227 -0.059862208 0.25712553 -0.017585395 0.27343947 -0.020250613 0.1935448 0.19623092 0.104354456 -0.04094043 0.07364144 -0.29573062 0.008787997 0.010619395 0.25545597 0.0783535 -0.19650528 -0.019569376 -0.23945554 -0.11437045 -0.29679474 0.17228696 -0.26121277 -0.22947942 -0.047122855 -0.06902542 -0.07892056 -0.46517923 -0.20211124 -0.048241314 -0.117364146 -0.044061437 -0.084427886 -0.028699966 0.08395147 -0.09984529 -0.13972218 -0.061952587 -0.13080585 -0.10586936 0.12245948 0.1766756 -0.019500976 -0.26414722 -0.017891867 0.06263174 -0.022036446 -0.03673867 0.26654494 0.1607968 -0.084073894 0.04006984 -0.086107224 -0.008823596 -0.45198625 0.021118594 -0.06774694 -0.27922115 0.3272603 0.19689974 -0.02408605 0.28827187 0.09765638 -0.16717461 0.45781025 -0.17571832 -0.053490058 0.12954746 -0.07835899 -0.0672518 0.2899883 -0.0056885774 -0.038930222 0.18506606 0.029650606 0.27134582 0.11032212 0.13389958 0.19265059 -0.07044152 0.10763185 0.07748609 0.053762868 0.07309714 0.16961707 0.029995913 0.15190676 0.13725343 0.24124925 -0.15232763 0.07000006 -0.3312583 -0.2989474 0.07108492 -0.07118057 0.13496563 0.02675868 -0.25365582 -0.045128874 -0.085107245 -0.022678714 -0.019352369 -0.1034352 -0.09618819 0.20939744 -0.005169974 -0.10885027 0.051854987 -0.056323417 -0.07926581 0.14324413 -0.22762077 0.11116301 0.13030201 -0.03886345 0.1297033 0.079707325 0.39890775 0.16700731 0.018585725 0.15032224 0.19050163 -0.046262614 0.15954798 0.15457103 -0.012152173 0.06440356 -0.1154793 -0.050838232 0.4470028 0.19468865 0.07846612 0.031933486 -0.19580404 -0.09280978 0.20267229 -0.105139576 0.14375764 0.055427775 -0.162789 0.11020357 0.19761997
过程 -0.18669763 -0.2077139 -0.30524173 -0.16492766 -0.23713823 -0.0069722515 0.011172436 -0.25481772 -0.14943264 -0.12089681 -0.14211397 -0.25553492 0.25208527 0.27588862 -0.01936191 -0.1478737 0.08018359 0.09760911 0.27996734 0.34480458 -0.008640008 -0.14772105 -0.19421288 0.4711557 0.20674609 0.13508432 -0.22123922 -0.12400694 -0.14670222 0.016157022 -0.049987998 0.12920973 0.07192975 0.017754711 0.19448927 -0.026889028 0.119702265 -0.01692088 -0.20000361 -0.20967557 0.032868236 -0.004263682 0.0390221 0.41054174 -0.021405924 -0.13867718 0.060314853 -0.0395703 0.018354684 0.09902144 -0.003868484 -0.25943637 0.003996149 -0.2661699 -0.29859918 0.010659185 0.24094102 0.032414343 -7.542622e-05 -0.060018703 0.25758597 -0.013831925 0.2751386 -0.019870736 0.19001772 0.19653523 0.10321159 -0.037319582 0.07886853 -0.29425666 0.007581894 0.009546034 0.25566918 0.082902186 -0.19405234 -0.024298497 -0.2414669 -0.12082717 -0.2952841 0.17290331 -0.2622225 -0.2308186 -0.047680024 -0.07215998 -0.07777652 -0.46592036 -0.20551115 -0.050213147 -0.11674916 -0.04003453 -0.080992796 -0.03237053 0.08585245 -0.10020158 -0.14045787 -0.06702287 -0.1325574 -0.10573704 0.12462406 0.17905264 -0.015052143 -0.26135042 -0.016283745 0.058270216 -0.022709152 -0.03824449 0.26586604 0.15979797 -0.08477395 0.04451289 -0.0916317 -0.006474901 -0.45409986 0.021442847 -0.06575125 -0.2845233 0.32974744 0.20048268 -0.023401877 0.2887239 0.099009044 -0.17009446 0.46018618 -0.17655362 -0.05207173 0.13118017 -0.078706734 -0.071720764 0.2878574 -0.0016975619 -0.041354176 0.18625703 0.02924901 0.27340707 0.11233004 0.13062648 0.19319686 -0.06914262 0.10873914 0.078267 0.05218283 0.072995566 0.16941702 0.030797785 0.15301937 0.13683556 0.241796 -0.15232936 0.070794664 -0.33480984 -0.2976918 0.07346287 -0.071220644 0.1377493 0.028129233 -0.25361636 -0.045563523 -0.08443605 -0.020959554 -0.019353572 -0.102742046 -0.097716466 0.20888579 -0.0054652262 -0.11129923 0.052221615 -0.056843378 -0.08457809 0.14966205 -0.23179582 0.11728363 0.13173465 -0.0392896 0.12929562 0.07835572 0.4011833 0.17237069 0.022467917 0.15194991 0.19223008 -0.048629288 0.16177295 0.15760598 -0.012823389 0.067117885 -0.115128115 -0.051619958 0.45272112 0.19505104 0.079159275 0.032255396 -0.20104116 -0.09237017 0.20369004 -0.105344266 0.14263451 0.05166472 -0.16134714 0.10749394 0.20107049
实现 -0.20350844 -0.22603357 -0.33386904 -0.18297005 -0.25951988 -0.0065687904 0.012151138 -0.27743354 -0.16659491 -0.13492002 -0.15078586 -0.27811188 0.27871916 0.30334306 -0.02172652 -0.16513436 0.091999546 0.10656908 0.30515125 0.3797566 -0.0059037935 -0.1638351 -0.2087519 0.5107629 0.2295067 0.1469422 -0.24171959 -0.1346157 -0.16461255 0.017408218 -0.051127505 0.14179951 0.07943402 0.020357357 0.21422866 -0.029102804 0.13050021 -0.020301227 -0.22141178 -0.22415188 0.03958339 -0.0014867543 0.041599773 0.44551733 -0.026770035 -0.14908183 0.06422301 -0.04131673 0.017310994 0.107647434 -0.007446406 -0.28508103 0.0056851045 -0.2910626 -0.32952768 0.008385707 0.26932725 0.037178494 0.00015708208 -0.06602827 0.2830587 -0.019974971 0.30022198 -0.019768074 0.21050812 0.21686532 0.11280448 -0.041496553 0.08413284 -0.32453266 0.00785755 0.010596038 0.27766165 0.08567889 -0.21541141 -0.024777023 -0.26312277 -0.1283866 -0.32789895 0.19005667 -0.28745922 -0.25589383 -0.05566972 -0.075731695 -0.09051105 -0.5121279 -0.2213439 -0.049918443 -0.12837538 -0.045739032 -0.08958245 -0.035596125 0.09004391 -0.10513096 -0.15205595 -0.07021363 -0.14547092 -0.11942922 0.13476293 0.19337428 -0.01864335 -0.28678286 -0.021964945 0.06566594 -0.021980835 -0.040564857 0.28792867 0.17560522 -0.09203917 0.047614176 -0.09748089 -0.0095827 -0.49389037 0.023216328 -0.073013894 -0.30918184 0.3560327 0.21779093 -0.026511218 0.31612745 0.10859931 -0.1853402 0.5041762 -0.18832183 -0.061139394 0.14244084 -0.08386359 -0.07522554 0.31675 -0.0043623825 -0.04386916 0.2059665 0.032634642 0.30197954 0.12522009 0.14600246 0.2098829 -0.073674455 0.11850306 0.08755461 0.05949281 0.0791185 0.1824352 0.0342766 0.16700785 0.1530632 0.26168516 -0.1673223 0.07882196 -0.36388487 -0.3236729 0.082351424 -0.07580369 0.14867999 0.030711455 -0.2795419 -0.047201786 -0.09332485 -0.024963126 -0.023605345 -0.10972253 -0.10569212 0.22716475 -0.007950243 -0.117905214 0.054467928 -0.06527954 -0.089232035 0.15879823 -0.2513089 0.12441762 0.14035188 -0.043299373 0.14240868 0.083048925 0.4359024 0.18880841 0.023273986 0.16482046 0.20946427 -0.052626126 0.17710927 0.1714063 -0.012012442 0.07311561 -0.12624592 -0.056782052 0.49267185 0.20995574 0.08671307 0.037861284 -0.21896662 -0.10267868 0.2231502 -0.118789084 0.15375932 0.060615778 -0.1773429 0.1177794 0.22017814
设备 -0.22489257 -0.24832489 -0.3665043 -0.20028283 -0.28348157 -0.0096764 0.014325174 -0.31117186 -0.18258087 -0.15164472 -0.17154744 -0.30521902 0.31097203 0.33868575 -0.025796872 -0.1799838 0.09819305 0.12001565 0.3417574 0.41770124 -0.0071157706 -0.1815631 -0.23224932 0.5663989 0.25493547 0.16097017 -0.26870257 -0.14787649 -0.18178692 0.02267704 -0.056964457 0.15817532 0.083312385 0.02363972 0.23365182 -0.030281268 0.14567675 -0.020608945 -0.24468951 -0.24915841 0.038786806 -0.0015299835 0.046416666 0.49525347 -0.027191734 -0.16319291 0.069840886 -0.046637483 0.021448648 0.11644839 -0.008111865 -0.31745714 0.00836662 -0.3197145 -0.36743104 0.011942378 0.2960774 0.040276095 -0.0024098386 -0.07081926 0.31440622 -0.020228537 0.33242574 -0.024832183 0.2312602 0.23590572 0.12573187 -0.046898697 0.090937026 -0.3607947 0.008344589 0.013437158 0.30605492 0.10097842 -0.23934752 -0.026771095 -0.2922615 -0.14437453 -0.36064798 0.20886476 -0.31664583 -0.2813734 -0.057908747 -0.083300106 -0.097839534 -0.56850374 -0.24937612 -0.05836902 -0.14323185 -0.049118884 -0.0989443 -0.03632274 0.099708535 -0.12057592 -0.16937797 -0.074536964 -0.15640974 -0.13217759 0.15138736 0.21809463 -0.023474539 -0.3179501 -0.023572909 0.071785316 -0.022390844 -0.042703483 0.32350445 0.1986621 -0.10049453 0.051088482 -0.11082166 -0.008640705 -0.5457814 0.022402178 -0.081661195 -0.34472534 0.39762074 0.24147888 -0.0332074 0.35236484 0.12295374 -0.20349562 0.5578343 -0.21137807 -0.06690595 0.16125675 -0.09544498 -0.08110491 0.34905353 -0.005440923 -0.04665788 0.22723956 0.036405016 0.33306628 0.13499913 0.16110198 0.2316234 -0.08703113 0.13131453 0.0964369 0.06408523 0.08435787 0.20132981 0.036767405 0.18856815 0.17057614 0.29285708 -0.18348946 0.08789887 -0.40788737 -0.35840848 0.08970334 -0.086998485 0.16703357 0.03168027 -0.30940872 -0.054608643 -0.09987467 -0.030465249 -0.025224421 -0.12129475 -0.118840724 0.25482982 -0.0068959864 -0.13220593 0.061591975 -0.070408 -0.10236991 0.17584926 -0.2822073 0.14095308 0.1590341 -0.050521377 0.15620635 0.0921566 0.4823936 0.2089161 0.022850271 0.18722525 0.23319638 -0.057706054 0.19611327 0.1897259 -0.013516009 0.0814575 -0.13658178 -0.06357293 0.54671276 0.23200615 0.09528492 0.04150578 -0.2390778 -0.11303164 0.24967638 -0.13277219 0.17280068 0.065179445 -0.19782786 0.13076396 0.24169932
采样 -0.20387962 -0.21882439 -0.32544652 -0.18211502 -0.25500304 -0.011625358 0.014130873 -0.267997 -0.16199586 -0.13061208 -0.15287317 -0.27729273 0.27560434 0.2931901 -0.021686677 -0.16158767 0.088727385 0.10418198 0.30098733 0.37733057 -0.009116386 -0.15633893 -0.21068394 0.50728214 0.22321485 0.1515185 -0.2428945 -0.13186269 -0.16154793 0.023209436 -0.049545623 0.14357054 0.06962256 0.017020682 0.2142993 -0.032832023 0.13479562 -0.020244012 -0.2182732 -0.22659706 0.032956485 -0.0031117322 0.04421344 0.44129324 -0.02419589 -0.14971453 0.0671241 -0.04658237 0.016812222 0.10936864 -0.009695505 -0.28078818 0.0102857705 -0.28839692 -0.3247052 0.008182753 0.26189253 0.032580264 -0.003984026 -0.06544744 0.27951655 -0.008512431 0.30399656 -0.015827995 0.20300771 0.20363657 0.11159351 -0.040537626 0.08666225 -0.31843725 0.008610471 0.0055747493 0.27845162 0.09112431 -0.21732852 -0.02050028 -0.2561061 -0.12356794 -0.31930128 0.18211147 -0.28418466 -0.25712708 -0.05336392 -0.070282176 -0.081238925 -0.50419396 -0.21968745 -0.054810826 -0.13159245 -0.04408684 -0.093369275 -0.032744635 0.09157111 -0.10644807 -0.15103115 -0.07733355 -0.14081353 -0.12016529 0.13111836 0.195885 -0.024175739 -0.2846724 -0.019031148 0.06234165 -0.02063806 -0.03721989 0.28602138 0.18089247 -0.08586526 0.046872772 -0.098928384 -0.009413364 -0.49226192 0.023350613 -0.07047888 -0.30024973 0.35463846 0.21775265 -0.02621793 0.31004244 0.1106895 -0.1901664 0.49579287 -0.19104345 -0.053918846 0.14214185 -0.08732664 -0.07363034 0.31444576 -0.0060197012 -0.044575248 0.20433755 0.032052297 0.29965344 0.117462605 0.14374144 0.21249631 -0.0709689 0.12323463 0.08806095 0.057359494 0.07399021 0.18507098 0.032869652 0.16542313 0.15091601 0.25667223 -0.15927458 0.07478465 -0.36455077 -0.32433417 0.081797354 -0.079817705 0.15180247 0.02710186 -0.27592918 -0.043314226 -0.08881455 -0.025078999 -0.02268656 -0.11188093 -0.101480715 0.22140124 -0.0026101319 -0.12007851 0.055744827 -0.060334574 -0.09265507 0.15922038 -0.25167012 0.12565087 0.14278239 -0.04233175 0.14387928 0.08566013 0.43144098 0.17908916 0.024134854 0.16407059 0.21110782 -0.052277118 0.17779498 0.1639237 -0.012898187 0.07132725 -0.1252005 -0.058718987 0.47989103 0.20776094 0.086951464 0.032634545 -0.20900431 -0.09558359 0.2200545 -0.11833012 0.15129462 0.060642067 -0.17295633 0.11819433 0.22253744
应用 -0.18668288 -0.20653631 -0.30273217 -0.16773361 -0.23651375 -0.008361096 0.012995665 -0.25758874 -0.14867765 -0.123043075 -0.13798703 -0.25238967 0.25461987 0.28194082 -0.02083814 -0.14708251 0.08155015 0.09525608 0.2822531 0.34795335 -0.007902387 -0.14725286 -0.19208214 0.4701979 0.20684925 0.133171 -0.22188416 -0.12243408 -0.15072943 0.017973706 -0.047165316 0.12769145 0.0718364 0.022351347 0.19669473 -0.02791434 0.11933419 -0.01868671 -0.20116846 -0.20912659 0.03498892 -0.0014245347 0.040171586 0.41132453 -0.024975268 -0.13460097 0.059291776 -0.03827534 0.017352058 0.09632002 -0.0046486766 -0.26471272 0.003999411 -0.2633326 -0.30448717 0.009263336 0.2430634 0.034513965 0.0015761132 -0.05803388 0.26134825 -0.018446287 0.27275115 -0.018218977 0.19545211 0.19531876 0.10397422 -0.041840848 0.0767424 -0.29806066 0.0068375487 0.010289428 0.25608307 0.079897426 -0.19713959 -0.019163176 -0.23952527 -0.12033528 -0.29859436 0.17056245 -0.26377517 -0.2352897 -0.04814312 -0.07171267 -0.082265645 -0.46704754 -0.2046527 -0.04924911 -0.11742097 -0.04382275 -0.081315935 -0.032999676 0.08390223 -0.09586801 -0.13921939 -0.06436062 -0.13092601 -0.10695675 0.12557325 0.1765783 -0.016926102 -0.2635644 -0.01811425 0.059776165 -0.02130632 -0.036425266 0.26595834 0.16023882 -0.080822386 0.042686883 -0.08758075 -0.0045584096 -0.454077 0.019581968 -0.06521619 -0.2826849 0.32861012 0.2002707 -0.024539366 0.29342994 0.103295006 -0.16676089 0.4610951 -0.17730935 -0.055342365 0.13002607 -0.076345235 -0.06792676 0.2899318 -0.003958582 -0.0402941 0.18528607 0.029158494 0.27725932 0.11545061 0.13365914 0.19072378 -0.069460385 0.10817386 0.077330135 0.056482557 0.07280653 0.16638665 0.02850403 0.15551552 0.14048436 0.24279217 -0.150176 0.07054779 -0.33393317 -0.29953676 0.07337049 -0.070059225 0.13546023 0.029957844 -0.25711334 -0.042009693 -0.085780494 -0.02302482 -0.021995105 -0.10063919 -0.09935457 0.20966184 -0.009547363 -0.10963035 0.047440138 -0.061780885 -0.08497701 0.15063147 -0.23123302 0.113404304 0.13034074 -0.040883567 0.12976581 0.080375984 0.39821103 0.17033373 0.01982499 0.15299258 0.19267079 -0.046622913 0.16202821 0.15928929 -0.011866884 0.07034125 -0.1167827 -0.05159911 0.45458224 0.19281459 0.08021942 0.035473417 -0.1986877 -0.09341636 0.20237797 -0.10810976 0.14351955 0.05115803 -0.16086322 0.10957055 0.19916429
管理 -0.14044501 -0.15725316 -0.23167641 -0.12933712 -0.17535979 -0.0062145353 0.0087848995 -0.19185475 -0.113584414 -0.09578587 -0.10839764 -0.19380693 0.19622533 0.21381627 -0.01698111 -0.114468485 0.06542577 0.07464362 0.21427488 0.2623897 -0.006197205 -0.11609245 -0.14496198 0.3588425 0.15763493 0.10257292 -0.16805582 -0.09340272 -0.11129782 0.011505312 -0.03572055 0.09775923 0.053654324 0.016724827 0.14931872 -0.02072108 0.09093235 -0.014223371 -0.1538471 -0.15541662 0.02386874 -0.0058095492 0.032529883 0.31498903 -0.020403014 -0.1032006 0.041315183 -0.031775072 0.0143436715 0.073767394 -0.004581393 -0.19944973 0.006112602 -0.20270982 -0.22959931 0.00421437 0.18756987 0.025591603 -0.0035926255 -0.04327161 0.19893889 -0.009786831 0.2057565 -0.015814714 0.14919041 0.15014513 0.07943672 -0.033056237 0.05862574 -0.22781971 0.0058373306 0.008642409 0.19190182 0.06085839 -0.14851807 -0.015214271 -0.18455388 -0.091919824 -0.22512044 0.1327183 -0.20076324 -0.17658263 -0.039996196 -0.051864024 -0.061922766 -0.35663635 -0.15917505 -0.033132862 -0.090929285 -0.034681708 -0.064936906 -0.024438273 0.06192977 -0.07698337 -0.10632413 -0.0445061 -0.09772941 -0.08218467 0.09545215 0.13908386 -0.015758457 -0.1974956 -0.014937915 0.048243143 -0.015030619 -0.027262151 0.20336097 0.12483099 -0.06441634 0.02911562 -0.068402804 -0.004477234 -0.34525785 0.0144184735 -0.048580546 -0.21635854 0.2504343 0.15030026 -0.020799635 0.21866456 0.07541592 -0.12648426 0.34994426 -0.13199504 -0.037914686 0.099851824 -0.06034272 -0.0500167 0.22135355 -0.0023425403 -0.031215427 0.14367582 0.018722571 0.20744577 0.08398946 0.0990045 0.14652285 -0.05183582 0.08096871 0.058396794 0.0421967 0.05556324 0.12898508 0.019653676 0.11952471 0.10561488 0.18378372 -0.115687184 0.053342137 -0.25806245 -0.22444461 0.056034368 -0.05219175 0.103897415 0.023089536 -0.19476087 -0.030674728 -0.06526864 -0.019735033 -0.017240077 -0.0753847 -0.07672804 0.15624353 -0.0059296507 -0.082497954 0.039246473 -0.04340129 -0.06293159 0.11240776 -0.17498077 0.085103676 0.0972413 -0.031258367 0.1020589 0.060235273 0.30285093 0.1325295 0.018000977 0.11737624 0.14313577 -0.035778485 0.12628134 0.11737618 -0.009594226 0.050804064 -0.08936454 -0.044405453 0.34605852 0.1456018 0.06034247 0.02420005 -0.15162191 -0.06824849 0.15816784 -0.083461106 0.11032157 0.042389344 -0.12168754 0.084681846 0.15409674
